tree
version=v4
num_class=1
num_tree_per_iteration=1
label_index=0
max_feature_idx=6
objective=regression
feature_names=Column_0 Column_1 Column_2 Column_3 Column_4 Column_5 Column_6
feature_infos=[-1.0649496802264362:3.3696603636848033] [-1.0531806133392936:3.3512399670782389] [-1.2681875098445878:6.8201854406766564] [-2.7578777479355665:2.2378470629271394] [-4.13485752320224:5.7784299550278346] [-1.0517592720600408:3.2700061228798227] [-1.0931786896909383:3.6265105706214738]
tree_sizes=2598 2676 2687 2698 2686 2702 2684 2706 2699 2697 2703 2708 2697 2708 2695 2711 2706 2711 2697 2703 2706 2709 2716 2716 2713 2712 2717 2717 2711 2722 2728 2727 2723 2731 2718 2741 2728 2733 2737 2738 2741 2733 2737 2742 2748 2735 2748 2751 2756 2765 2765 2760 2763 2766 2759 2747 2763 2762 2769 2760 2767 2771 2763 2767 2767 2761 2768 2763 2770 2771 2781 2770 2776 2786 2779 2771 2786 2782 2780 2786 2779 2786 2800 2788 2790 2790 2795 2808 2809 2790 2801 2816 2795 2806 2813 2816 2809 2812 2807 2819

Tree=0
num_leaves=31
num_cat=0
split_feature=6 5 5 6 1 1 6 1 6 5 1 0 1 1 1 3 5 3 1 3 3 3 1 3 5 3 1 4 6 1
split_gain=825967 130995 122993 17048.2 10734.1 6652.78 3910.44 3491.71 2796.75 1988.95 1844.59 1137.38 594.764 529.408 442.679 436.645 474.739 298.428 355.299 288.099 266.671 265.331 262.7 261.373 171.604 158.329 154.96 152.722 108.026 106.362
threshold=0.57677504836035076 1.9144315370100526 -0.39973615479571006 0.022151773906817624 1.4194968104888546 -0.72791978777658983 1.0188584199442909 2.947387903691943 0.3452181652956951 -0.55882942033427419 -0.17740287299734073 -0.94002919785364203 0.42352384381413516 -0.63939958067269431 0.162224697123619 -0.57000837640187496 2.7202099503091381 -0.041023060820377731 0.81777552511445328 -0.013215704960747346 -0.17695275000096061 -0.78003549008132333 -0.78999858452853611 0.016330120055382751 -0.050752792891463887 0.20031092984007001 -0.28755364222172719 -0.17990135755221789 -0.072730892103169673 1.2313517143748951
decision_type=2 2 2 2 2 2 2 2 2 2 2 2 2 2 2 2 2 2 2 2 2 2 2 2 2 2 2 2 2 2
left_child=2 4 5 10 6 11 17 15 14 13 26 27 -10 -7 25 -3 -17 -2 -19 28 -8 -16 -13 -18 -21 -5 -4 -1 -12 -22
right_child=1 7 3 8 -6 9 20 -9 12 -11 19 22 -14 -15 21 16 23 18 -20 24 29 -23 -24 -25 -26 -27 -28 -29 -30 -31
leaf_value=42.026500239145712 44.296076485316483 46.646632818040921 42.944981209664647 43.400684968197609 45.676721796762905 42.482550417211158 44.821270832788905 47.432639547227446 43.820394817677887 42.819628623327148 43.120744498644932 42.298019451414362 44.115609089451446 42.605770663307354 43.47635859642763 46.7288923014573 46.886165461313681 44.371670096488749 44.626165923845726 43.270260244460339 44.956317960772694 43.67866955566587 42.401421026747393 47.141788496744589 43.42855051624408 43.534515142868742 43.051377212557966 42.170896620118071 43.224920182848564 45.104422083204284
leaf_weight=30 21 21 56 39 35 231 20 36 76 70 37 189 22 140 21 23 20 24 32 67 22 71 91 20 23 51 88 47 76 27
leaf_count=30 21 21 56 39 35 231 20 36 76 70 37 189 22 140 21 23 20 24 32 67 22 71 91 20 23 51 88 47 76 27
internal_value=43.3597 45.7396 42.857 43.3811 44.8903 42.4453 44.7018 47.0206 43.6713 42.5752 43.1469 42.2848 43.8867 42.529 43.5554 46.8441 46.9099 44.4568 44.5171 43.244 44.9751 43.6325 42.3316 47.014 43.3107 43.4765 43.01 42.1146 43.1908 45.0379
internal_weight=1726 301 1425 627 181 798 146 120 280 441 347 357 98 371 182 84 63 77 56 203 69 92 280 40 90 90 144 77 113 49
internal_count=1726 301 1425 627 181 798 146 120 280 441 347 357 98 371 182 84 63 77 56 203 69 92 280 40 90 90 144 77 113 49
is_linear=0
shrinkage=1


Tree=1
num_leaves=31
num_cat=0
split_feature=6 5 5 6 6 6 1 6 6 5 1 0 0 1 2 1 1 3 0 4 3 1 3 1 1 3 3 1 6 2
split_gain=745435 118223 111001 15386 9690.54 6009.07 3172.51 2524.07 2291.39 1990.56 1664.74 1563.43 836.692 609.675 574.862 536.775 404.891 372.899 286.39 279.503 269.331 320.658 260.01 155.065 139.851 124.906 105.911 102.299 99.6064 67.4061
threshold=0.57677504836035076 1.9144315370100526 -0.39973615479571006 0.022151773906817624 1.4236106642072586 -0.76970102620982461 2.9925196640754872 0.3452181652956951 1.0188584199442909 -0.55882942033427419 -0.17740287299734073 1.417418333159443 -1.0054832011580037 -0.64666228545005444 0.7590718031264243 0.42352384381413516 0.108281054667624 -1.0844471344227313 2.8533006908718002 1.5407231656127081 -0.041023060820377731 0.81777552511445328 -0.013215704960747346 -0.050215352557658181 -0.28755364222172719 0.40119246993223395 -0.44831317388266367 -0.81388808265211943 -0.10672355633568804 0.11211872661774307
decision_type=2 2 2 2 2 2 2 2 2 2 2 2 2 2 2 2 2 2 2 2 2 2 2 2 2 2 2 2 2 2
left_child=2 4 5 10 8 12 14 16 20 13 24 -6 -1 26 -3 29 -5 -18 -16 -10 -2 -22 28 -24 -4 -14 -7 -27 -12 -9
right_child=1 6 3 7 11 9 -8 15 19 -11 22 -13 25 -15 18 -17 17 -19 -20 -21 21 -23 23 -25 -26 27 -28 -29 -30 -31
leaf_value=-1.216602112565722 0.88953117416018535 3.4842119852701821 -0.39400935428483147 0.085798123937386728 1.7460090296609061 -0.87917977333068853 3.9231637827555339 0.47566079989723536 1.335821261405945 -0.51309431212288992 -0.25333306737568068 2.2792580286661788 -1.0317263647420518 -0.71899243633763321 3.1022513656616213 0.718087142164057 0.050586529750199553 0.28318858581284684 3.3331793883751182 1.5787883002182532 0.9613451083501181 1.2031161546707154 -0.086141608858650381 0.062271022424101832 -0.29293315193869851 -1.0050035476684571 -0.81667169686910279 -0.90376042683919278 -0.13674136696590319 0.37932519197463987
leaf_weight=56 21 36 56 65 28 125 30 46 20 70 23 27 151 147 25 22 21 96 29 29 24 32 66 24 88 56 148 45 90 30
leaf_count=56 21 36 56 65 28 125 30 46 20 70 23 27 151 147 25 22 21 96 29 29 24 32 66 24 88 56 148 45 90 30
internal_value=2.15532e-09 2.26089 -0.477563 0.0202815 1.45404 -0.868726 3.47788 0.296012 1.21233 -0.759946 -0.20221 2.00779 -1.04179 -0.801088 3.32945 0.500593 0.185853 0.241439 3.22627 1.47962 1.04224 1.0995 -0.109972 -0.0465649 -0.332241 -1.00294 -0.845293 -0.959895 -0.160472 0.437634
internal_weight=1726 301 1425 627 181 798 120 280 126 490 347 55 308 420 90 98 182 117 54 49 77 56 203 90 144 252 273 101 113 76
internal_count=1726 301 1425 627 181 798 120 280 126 490 347 55 308 420 90 98 182 117 54 49 77 56 203 90 144 252 273 101 113 76
is_linear=0
shrinkage=0.05


Tree=2
num_leaves=31
num_cat=0
split_feature=6 0 5 6 1 1 6 0 6 1 1 0 3 5 1 1 1 1 3 5 3 1 3 3 5 3 4 1 6 4
split_gain=672755 106789 100178 13885.9 8762.77 5445.33 3169.98 2884.68 2277.97 1580.95 1502.43 985.502 689.787 496.759 484.439 428.984 369.104 247.841 243.071 293.136 237.562 236.838 228.088 217.89 162.934 133.833 129.269 126.216 122.458 97.3447
threshold=0.57677504836035076 1.8825729387134034 -0.39973615479571006 0.022151773906817624 1.4194968104888546 -0.72029505144035955 1.0188584199442909 3.0890899466735751 0.3452181652956951 -0.54330704101463689 -0.17740287299734073 -0.94002919785364203 -0.33257777411192763 2.7971606348734235 0.42352384381413516 -0.63939958067269431 0.162224697123619 -0.78999858452853611 -0.041023060820377731 0.76977275276829049 -0.29511751849952955 2.8245527606667511 -0.17695275000096061 -0.78003549008132333 -0.050752792891463887 0.20031092984007001 -0.17990135755221789 -0.28755364222172719 -0.080188784525204379 -0.3064575088646963
decision_type=2 2 2 2 2 2 2 2 2 2 2 2 2 2 2 2 2 2 2 2 2 2 2 2 2 2 2 2 2 2
left_child=2 4 5 10 6 11 18 12 16 15 27 26 -3 21 -10 29 25 -13 -2 -20 28 -14 -8 -18 -22 -5 -1 -4 -12 -7
right_child=1 7 3 8 -6 9 22 -9 14 -11 20 17 13 -15 -16 -17 23 -19 19 -21 24 -23 -24 -25 -26 -27 -28 -29 -30 -31
leaf_value=-1.2057361793518067 0.84505459013439366 2.9923664689064027 -0.37430888925279893 0.034845030240905593 2.0915564727783202 -0.82157914441659907 1.3144965028762818 3.7947784741719568 0.41575189170084503 -0.47228616230071535 -0.26421133694441423 -0.95792475200834737 3.0513339996337892 3.4691517916592689 0.68218277150934403 -0.67761977546069085 0.10550076847984678 -0.86211603527977365 0.91713893890380871 1.1472555960378339 -0.086375090944988853 3.289069245078347 1.5148664435561825 0.28883514269976546 0.062913214253342675 0.15788758034799613 -1.0728887943511314 -0.2782864800908349 -0.13074667493210121 -0.754601346121894
leaf_weight=30 21 32 56 39 35 109 20 24 76 63 23 189 20 22 22 147 21 105 25 31 89 22 49 71 23 51 47 88 68 108
leaf_count=30 21 32 56 39 35 109 20 24 76 63 23 189 20 22 22 147 21 105 25 31 89 22 49 71 23 51 47 88 68 108
internal_value=4.58299e-09 2.14784 -0.453684 0.0192674 1.38101 -0.82529 1.21067 3.30448 0.281211 -0.703544 -0.192099 -0.965412 3.18191 3.27668 0.475563 -0.743569 0.176561 -0.923707 0.990124 1.04452 -0.104473 3.17586 1.45679 0.246987 -0.0557177 0.104569 -1.12465 -0.315629 -0.16448 -0.788245
internal_weight=1726 301 1425 627 181 798 146 120 280 427 347 371 96 64 98 364 182 294 77 56 203 42 69 92 112 90 77 144 91 217
internal_count=1726 301 1425 627 181 798 146 120 280 427 347 371 96 64 98 364 182 294 77 56 203 42 69 92 112 90 77 144 91 217
is_linear=0
shrinkage=0.05


Tree=3
num_leaves=31
num_cat=0
split_feature=6 0 1 6 6 1 0 6 6 0 1 0 1 3 5 1 6 3 1 4 3 1 3 0 1 1 6 3 3 3
split_gain=607161 96377.1 90418.3 11851.7 7949.15 5435.36 2603.42 2057.19 1839.93 1356.39 1297.93 1273.43 1168.59 631.664 548.044 472.224 469.31 309.115 318.319 238.219 219.372 268.057 214.399 192.139 147.509 136.568 110.519 85.3763 81.4599 60.0733
threshold=0.57677504836035076 1.8825729387134034 -0.33661922020588675 0.022151773906817624 1.4236106642072586 -0.68098484425715122 3.0890899466735751 0.33515149635405167 1.0188584199442909 -0.88633728483556629 -0.54330704101463689 1.417418333159443 -0.17740287299734073 -0.16516047227153793 2.7641799488475121 0.42352384381413516 -0.80027237129081297 -0.93855159442354774 0.108281054667624 1.5407231656127081 -0.041023060820377731 0.81777552511445328 -0.29511751849952955 -1.0246675640959138 -0.050215352557658181 -0.60369029676350705 -0.080188784525204379 0.4647980274524221 -1.1019363412818839 1.0000000180025095e-35
decision_type=2 2 2 2 2 2 2 2 2 2 2 2 2 2 2 2 2 2 2 2 2 2 2 2 2 2 2 2 2 2
left_child=2 4 5 12 8 9 13 17 20 23 25 -6 28 -3 -15 -9 27 -5 -19 -10 -2 -22 26 -1 -24 29 -14 -11 -4 -7
right_child=1 6 3 7 11 10 -8 15 19 16 -12 -13 22 14 -16 -17 -18 18 -20 -21 21 -23 24 -25 -26 -27 -28 -29 -30 -31
leaf_value=-1.1119470790940889 0.80280185881115151 2.8677597143711191 -0.36855543277881764 0.029266660170895714 1.5772315059389388 -0.75049215280092685 3.6050396283467614 0.38752528213592896 1.1997988939285278 -0.92035168949355439 -0.43612644951064872 2.0584887681183992 -0.25100076198577881 2.9966855309226297 3.3107022126515711 0.6480736559087581 -0.78450214005456187 0.095800553203797822 0.25247034115737743 1.4241055948980925 0.86598264773686739 1.0870357632637024 -0.082898144203830848 -0.97637186391013009 0.05694486028514803 -0.63441656777838706 -0.12420933576410308 -0.85115102198388848 -0.2709861732223659 -0.67887035768423509
leaf_weight=49 21 39 27 35 28 52 24 83 20 117 77 27 23 33 24 22 203 51 89 29 24 32 88 56 24 119 68 72 103 67
leaf_count=49 21 39 27 35 28 52 24 83 20 117 77 27 23 33 24 22 203 51 89 29 24 32 88 56 24 119 68 72 103 67
internal_value=-2.21294e-09 2.04045 -0.431 0.0273932 1.31196 -0.777053 3.13926 0.267151 1.09304 -0.880041 -0.614563 1.81349 -0.174205 3.02281 3.1289 0.442116 -0.837291 0.162172 0.195398 1.33255 0.940618 0.992299 -0.0992493 -1.03964 -0.0529318 -0.672292 -0.156256 -0.89399 -0.291251 -0.710167
internal_weight=1726 301 1425 613 181 812 120 280 126 497 315 55 333 96 57 105 392 175 140 49 77 56 203 105 112 238 91 189 130 119
internal_count=1726 301 1425 613 181 812 120 280 126 497 315 55 333 96 57 105 392 175 140 49 77 56 203 105 112 238 91 189 130 119
is_linear=0
shrinkage=0.05


Tree=4
num_leaves=31
num_cat=0
split_feature=6 5 1 6 1 1 0 6 6 1 1 1 1 2 0 1 1 1 3 0 3 5 1 3 3 3 1 3 0 0
split_gain=547963 87015.5 81621.8 9767.24 7174.58 5719.5 2347.35 2227.16 1778.11 1487.72 1292.17 857.104 567.625 495.123 487.36 393.359 292.224 241.526 219.66 202.853 197.983 245.587 170.055 159.731 141.155 130.011 102.715 101.802 70.7662 65.4442
threshold=0.57677504836035076 1.9144315370100526 -0.31610756558214304 0.032942603107251098 1.3731387527353742 -0.67137312711873742 3.0890899466735751 1.0188584199442909 0.3452181652956951 -0.54330704101463689 -0.80889876600052102 -0.17740287299734073 1.6779840078993034 1.0221695919480791 -1.0246675640959138 0.42352384381413516 0.12448428529448659 -0.058716326313931755 -0.93855159442354774 2.8533006908718002 -0.041023060820377731 0.83506175657769066 2.8573700006187619 -1.0337445270736914 1.0000000180025095e-35 -1.3210585008256497 -0.60369029676350705 0.35249166275650995 -0.88633728483556629 -0.39022736889181403
decision_type=2 2 2 2 2 2 2 2 2 2 2 2 2 2 2 2 2 2 2 2 2 2 2 2 2 2 2 2 2 2
left_child=2 4 5 11 7 10 13 20 16 26 14 -4 -6 22 -1 -10 -5 23 -18 -15 -2 -22 -3 -13 -9 -12 -7 -19 -16 -11
right_child=1 6 3 8 12 9 -8 24 15 29 25 17 -14 19 28 -17 18 27 -20 -21 21 -23 -24 -25 -26 -27 -28 -29 -30 -31
leaf_value=-1.0563497154080139 0.76266180106571746 2.9008550123734906 -0.26221295447524534 0.079421511167803646 1.6350862321399509 -0.67054465430123467 3.4247875531514489 1.1868940138816835 0.37558803464237012 -0.44178679816576899 -0.83065081834793097 -0.22240012511610985 2.0027122043427967 2.6736672719319663 -0.92755327565329415 0.61566995057192719 0.063256749883294106 -0.071960239418268457 0.24644837564892239 2.8693398842444786 0.84865341494160329 1.059281436920166 3.0997746149698897 -0.09645108944278652 1.34828337260655 -0.73975340401360756 -0.60269573876837734 0.058369589951490199 -0.86104849474770695 -0.36006792321497083
leaf_weight=49 21 22 109 65 21 105 24 20 76 49 48 32 21 27 56 22 20 29 90 26 31 25 21 118 42 218 119 31 140 49
leaf_count=49 21 22 109 65 21 105 24 20 76 49 48 32 21 27 56 22 20 29 90 26 31 25 21 118 42 218 119 31 140 49
internal_value=-1.45485e-10 1.93843 -0.40945 0.0394268 1.24622 -0.72846 2.98251 1.07318 0.258965 -0.563413 -0.832463 -0.148453 1.8189 2.87194 -0.91531 0.429484 0.163474 -0.0894068 0.213141 2.76966 0.893587 0.942684 2.998 -0.12332 1.29622 -0.756156 -0.6345 -0.00462316 -0.88005 -0.400927
internal_weight=1726 301 1425 592 181 833 120 139 273 322 511 319 42 96 245 98 175 210 110 53 77 56 43 150 62 266 224 60 196 98
internal_count=1726 301 1425 592 181 833 120 139 273 322 511 319 42 96 245 98 175 210 110 53 77 56 43 150 62 266 224 60 196 98
is_linear=0
shrinkage=0.05


Tree=5
num_leaves=31
num_cat=0
split_feature=1 0 5 6 6 1 1 6 4 1 1 0 0 4 3 1 1 1 5 3 1 3 1 5 4 1 6 4 3 3
split_gain=494623 78945.1 73356.5 10090.3 6558.36 4044.37 2147.01 1621.83 1523.8 1147.67 1099.34 1033.57 723.168 456.079 352.82 342.039 312.573 311.568 265.564 257.936 258.023 178.881 176.999 121.155 102.775 100.973 93.2398 76.4167 67.4584 57.813
threshold=0.65776380342485241 1.8825729387134034 -0.39973615479571006 0.022151773906817624 1.4236106642072586 -0.72029505144035955 2.947387903691943 0.33515149635405167 1.4903966631663013 -0.54330704101463689 -0.17740287299734073 1.3632865471704225 -0.94002919785364203 -1.8594081035449737 -0.28133350617057024 0.42352384381413516 0.92874328964703179 -0.63939958067269431 2.7202099503091381 -0.93855159442354774 0.097482516730506286 -0.29511751849952955 -0.78999858452853611 -0.050752792891463887 -0.25255536060660405 -0.28755364222172719 -0.080188784525204379 -0.3064575088646963 -1.3588011898051651 -0.41258224707097019
decision_type=2 2 2 2 2 2 2 2 2 2 2 2 2 2 2 2 2 2 2 2 2 2 2 2 2 2 2 2 2 2
left_child=2 4 5 10 8 12 14 19 13 17 25 -6 24 -2 -3 29 -15 27 -16 -5 -21 26 -14 -23 -1 -4 -12 -7 -24 -9
right_child=1 6 3 7 11 9 -8 15 -10 -11 21 -13 22 16 18 -17 -18 -19 -20 20 -22 23 28 -25 -26 -27 -28 -29 -30 -31
leaf_value=-1.0391244954076306 0.68216533552516589 2.5611024856567384 -0.32276587103094379 0.024919787485684668 1.4002004890441895 -0.70443110378510365 3.1566058635711673 0.29308137112650379 1.2763333349516899 -0.40568416610596669 -0.22875297484190568 1.835502904256185 -0.82159313095940478 0.85673218882361124 2.629693241119385 0.57590361095610121 1.0691441601720351 -0.58061873442461698 2.8605913566820553 0.079642874974271527 0.22416041823143656 -0.073786971108004293 -0.82078067688714895 0.054946410008098773 -0.91990691820780435 -0.23688065606084738 -0.1122939696206766 -0.64508819094410652 -0.72058863072168267 0.38060511085722182
leaf_weight=29 22 31 56 35 25 109 36 29 33 63 23 30 189 43 20 21 29 147 33 46 94 89 21 23 48 88 68 108 84 54
leaf_count=29 22 31 56 35 25 109 36 29 33 63 23 30 189 43 20 21 29 147 33 46 94 89 21 23 48 88 68 108 84 54
internal_value=1.37977e-09 1.83797 -0.389794 0.0153864 1.18155 -0.707642 2.83354 0.239258 0.984026 -0.60272 -0.164614 1.63764 -0.828402 0.881407 2.69509 0.395635 0.942287 -0.636823 2.77346 0.146325 0.176676 -0.089658 -0.792677 -0.0473507 -0.964807 -0.27028 -0.141729 -0.674896 -0.740627 0.350025
internal_weight=1726 302 1424 626 182 798 120 279 127 427 347 55 371 94 84 104 72 364 53 175 140 203 294 112 77 144 91 217 105 83
internal_count=1726 302 1424 626 182 798 120 279 127 427 347 55 371 94 84 104 72 364 53 175 140 203 294 112 77 144 91 217 105 83
is_linear=0
shrinkage=0.05


Tree=6
num_leaves=31
num_cat=0
split_feature=6 1 5 1 1 1 1 0 1 1 1 6 2 0 6 1 3 0 3 3 4 3 4 5 1 0 5 0 2 3
split_gain=446408 76615.5 57113.5 11351.6 5157.49 4361.86 2729.66 1955.79 1529.66 1439.49 1055.18 1022.7 417.656 379.414 371.079 318.505 200.474 184.11 171.994 145.811 136.39 133.549 116.085 86.0197 84.5444 81.2805 76.4668 75.5621 67.2429 53.6583
threshold=0.77696251815496908 -0.29602216703191131 1.9144315370100526 0.162224697123619 -0.67137312711873742 1.4194968104888546 0.48989130979718759 3.0890899466735751 -0.058716326313931755 -0.54330704101463689 -0.81619035301566945 1.0188584199442909 1.0221695919480791 -1.0246675640959138 0.3452181652956951 -0.17740287299734073 -0.54098574621627871 2.8533006908718002 -0.17695275000096061 -0.78003549008132333 0.7743408773860968 -1.0337445270736914 -0.86450705752838053 0.073067524414849636 -0.60369029676350705 0.85768053968672342 1.2441914930156732 -0.39022736889181403 0.30075877451028976 0.53303941708666025
decision_type=2 2 2 2 2 2 2 2 2 2 2 2 2 2 2 2 2 2 2 2 2 2 2 2 2 2 2 2 2 2
left_child=1 4 5 8 10 11 14 12 15 24 13 25 20 -1 19 29 -10 -14 -13 -5 -4 -17 -12 -18 -6 -2 -20 -11 -16 -3
right_child=2 3 7 6 9 -7 -8 -9 16 27 22 18 17 -15 28 21 23 -19 26 -21 -22 -23 -24 -25 -26 -27 -28 -29 -30 -31
leaf_value=-0.95400900354190754 0.79870795726776134 -0.25064617378610959 2.6113687705993653 0.087094130331561687 -0.6050856903621129 1.7063450050354003 0.69089280891418459 3.0957180341084798 -0.038734184944381321 -0.39941323630663816 -0.77132556506565642 1.0610342073440553 2.4056928069503218 -0.79726204531533384 0.37734988665176655 -0.2023900054395199 0.058378629329735823 2.592106679769663 1.1809370415551323 0.2370693777648496 2.7899007465528407 -0.087225269052689361 -0.67397930865385103 0.16100488284538533 -0.54352997771832123 0.93797922134399414 1.3071534610929945 -0.31662615253811793 0.27808386286099757 -0.16416620736320814
leaf_weight=49 20 71 20 21 105 35 50 24 45 49 35 20 27 182 59 32 69 26 28 71 23 118 245 29 119 22 21 63 24 24
leaf_count=49 20 71 20 21 105 35 50 24 45 49 35 20 27 182 59 32 69 26 28 71 23 118 245 29 119 22 21 63 24 24
internal_value=2.71999e-09 -0.343226 1.88387 0.0825326 -0.65136 1.21965 0.365081 2.69201 -0.0813162 -0.499205 -0.751408 1.06619 2.59108 -0.830511 0.271992 -0.157163 0.048631 2.49714 1.1846 0.202836 2.70686 -0.111794 -0.686148 0.0887476 -0.572384 0.87166 1.23503 -0.352846 0.348646 -0.228799
internal_weight=1726 1460 266 613 847 146 225 120 388 336 511 111 96 231 175 245 143 53 69 92 43 150 280 98 224 42 49 112 83 95
internal_count=1726 1460 266 613 847 146 225 120 388 336 511 111 96 231 175 245 143 53 69 92 43 150 280 98 224 42 49 112 83 95
is_linear=0
shrinkage=0.05


Tree=7
num_leaves=31
num_cat=0
split_feature=1 0 0 6 6 1 1 6 4 1 0 5 0 4 2 1 5 1 3 1 3 0 4 4 6 5 1 3 6 3
split_gain=402981 64333.3 59743.6 8445.78 5356.92 3173.85 1772.1 1311.89 1237.9 955.768 849.664 818.509 565.115 402.013 308.056 273.589 265.835 250.495 210.232 210.461 180.628 176.432 118.663 109.026 106.62 94.3981 71.8893 66.0403 51.1657 48.9374
threshold=0.65776380342485241 1.8825729387134034 -0.37622614442690655 0.022151773906817624 1.4236106642072586 -0.72791978777658983 2.947387903691943 0.33515149635405167 1.4903966631663013 -0.21075198453053681 1.417418333159443 -0.55882942033427419 -0.90961090662355637 -1.6907686165581139 0.58111301664461812 0.42352384381413516 0.83506175657769066 -0.64666228545005444 -0.93855159442354774 0.108281054667624 -0.14903858026606912 2.8533006908718002 -0.01085903293471603 -0.17990135755221789 -0.10672355633568804 -0.050752792891463887 -0.28755364222172719 -0.44831317388266367 -0.7346842707903295 -0.41258224707097019
decision_type=2 2 2 2 2 2 2 2 2 2 2 2 2 2 2 2 2 2 2 2 2 2 2 2 2 2 2 2 2 2
left_child=2 4 5 9 8 12 14 18 13 26 -6 17 23 -2 -3 29 -15 27 -5 -20 24 -16 28 -1 -11 -22 -4 -7 -14 -9
right_child=1 6 3 7 10 11 -8 15 -10 20 -12 -13 22 16 21 -17 -18 -19 19 -21 25 -23 -24 -25 -26 -27 -28 -29 -30 -31
leaf_value=-0.93757654825846348 0.61373917745507289 2.5833280165990193 -0.29361479585132905 0.022734432199171612 1.2856411388942175 -0.64252587413787854 2.8512211958567306 0.26338278671790816 1.1513661846970067 -0.22002222010722527 1.6787511825561525 -0.38408584594726564 -0.74191355236241074 0.74745635092258456 2.2856334304809574 0.51778952507745657 0.94190197724562419 -0.52829535769767499 0.078756125694980805 0.20614742871080893 -0.064583316561492063 2.4571133232116704 -0.65051826749529162 -0.8211558967340189 -0.10364944200939785 0.049596686855606413 -0.22138233765175472 -0.58791391388062508 -0.66818058755662713 0.34390829139285617
leaf_weight=30 23 24 63 35 28 100 36 29 33 26 27 63 183 32 30 21 39 147 51 89 85 30 56 61 81 23 76 124 27 54
leaf_count=30 23 24 63 35 28 100 36 29 33 26 27 63 183 32 30 21 39 147 51 89 85 30 56 61 81 23 76 124 27 54
internal_value=3.15387e-10 1.65899 -0.351836 0.0101963 1.06642 -0.641553 2.55772 0.215922 0.887904 -0.151943 1.47862 -0.550716 -0.751983 0.795413 2.43193 0.356565 0.854265 -0.579012 0.132339 0.159741 -0.0858839 2.37137 -0.715188 -0.859536 -0.131927 -0.0402672 -0.254121 -0.612294 -0.732434 0.315773
internal_weight=1726 302 1424 633 182 791 120 279 127 354 55 434 357 94 84 104 71 371 175 140 215 60 266 91 107 108 139 224 210 83
internal_count=1726 302 1424 633 182 791 120 279 127 354 55 434 357 94 84 104 71 371 175 140 215 60 266 91 107 108 139 224 210 83
is_linear=0
shrinkage=0.05


Tree=8
num_leaves=31
num_cat=0
split_feature=6 1 0 1 1 1 0 0 1 1 6 6 3 5 1 6 1 3 4 3 0 3 1 5 3 0 5 4 3 5
split_gain=363738 62400.2 46516.5 9670.52 3815.56 3556 2211.04 1629.85 1360.81 1028.95 830.908 827.132 451.985 379.674 318.631 307.722 283.926 162.007 154.174 140.458 119.023 118.321 80.3388 68.9935 67.0735 66.8606 64.9297 58.3804 48.2469 48.0404
threshold=0.77696251815496908 -0.31610756558214304 1.8825729387134034 0.162224697123619 -0.68098484425715122 1.4194968104888546 0.45591014124843249 3.0890899466735751 -0.058716326313931755 -0.54330704101463689 -0.86838808766637687 1.0188584199442909 -0.16516047227153793 2.7641799488475121 -0.21075198453053681 0.3452181652956951 -0.75562981829348019 -0.54098574621627871 -0.92567712568074456 -0.17695275000096061 -1.0598901614810263 -0.78003549008132333 -0.60369029676350705 0.073067524414849636 0.40119246993223395 0.85768053968672342 1.2441914930156732 0.10355891128290785 -1.0719467414045323 -0.45781789678281043
decision_type=2 2 2 2 2 2 2 2 2 2 2 2 2 2 2 2 2 2 2 2 2 2 2 2 2 2 2 2 2 2
left_child=1 4 5 8 10 11 15 12 14 22 20 25 -4 -14 -3 21 24 -10 -16 -13 -1 -5 28 -19 -12 -2 -21 -17 -6 -11
right_child=2 3 7 6 9 -7 -8 -9 17 29 16 19 13 -15 18 27 -18 23 -20 26 -22 -23 -24 -25 -26 -27 -28 -29 -30 -31
leaf_value=-0.89459511211940235 0.72139976263046268 -0.21998163867242559 2.2065381074563049 0.079282942875510173 -0.60210297953697944 1.540512147630964 0.62647557258605957 2.7983709653218587 -0.034688452140738568 -0.38226248196193152 -0.71452875055818477 0.95733317136764529 2.3173900257457389 2.5787568092346191 -0.23178984494436358 0.25998556315898896 -0.60538816841281196 0.052713835825198813 -0.086574260266960093 1.0647247246333531 -0.77421487956852109 0.21438315838155614 -0.49036287019232749 0.1446240246295929 -0.65489845758751986 0.84771430275656956 1.1810304777962821 0.34697883084968284 -0.52956657843156296 -0.30477020570210051
leaf_weight=28 20 97 39 21 31 35 49 24 45 28 117 20 33 24 21 30 196 69 141 28 77 71 119 29 79 22 21 54 88 70
leaf_count=28 20 97 39 21 31 35 49 24 45 28 117 20 33 24 21 30 196 69 141 28 77 71 119 29 79 22 21 54 88 70
internal_value=-3.81427e-09 -0.309819 1.70051 0.0669497 -0.593414 1.10107 0.329422 2.42983 -0.0799562 -0.463266 -0.681401 0.962507 2.3377 2.42744 -0.148312 0.246719 -0.647941 0.0438487 -0.105399 1.06899 -0.806316 0.183545 -0.519413 0.0799117 -0.690494 0.787565 1.11457 0.31591 -0.548463 -0.326911
internal_weight=1726 1460 266 627 833 146 225 120 402 336 497 111 96 57 259 176 392 143 162 69 105 92 238 98 196 42 49 84 119 98
internal_count=1726 1460 266 627 833 146 225 120 402 336 497 111 96 57 259 176 392 143 162 69 105 92 238 98 196 42 49 84 119 98
is_linear=0
shrinkage=0.05


Tree=9
num_leaves=31
num_cat=0
split_feature=1 5 0 6 6 1 0 1 4 1 0 1 6 4 3 1 1 5 3 3 3 1 1 1 0 6 2 5 1 0
split_gain=328308 52405.1 48661.2 6883.21 4383.41 2593.45 1469.1 1073.09 1006.04 773.566 697.708 608.501 531.46 354.359 345.282 366.255 236.59 220.126 186.888 161.535 153.017 151.248 147.65 114.809 96.9898 85.0239 78.3364 75.8994 59.6457 50.0274
threshold=0.65776380342485241 1.9144315370100526 -0.37622614442690655 0.022151773906817624 1.4236106642072586 -0.70969724743663509 3.0890899466735751 0.27146630125676485 1.4903966631663013 -0.21075198453053681 1.417418333159443 -0.55558957542573928 -0.88560920045712443 -1.6907686165581139 -0.57000837640187496 2.7561700080562379 0.42352384381413516 0.83506175657769066 0.016330120055382751 -0.93855159442354774 -0.14903858026606912 0.097482516730506286 -0.64666228545005444 -0.77186936103641013 -1.0598901614810263 -0.10672355633568804 0.14444809012806545 -0.050752792891463887 -0.28755364222172719 -0.5497253577775244
decision_type=2 2 2 2 2 2 2 2 2 2 2 2 2 2 2 2 2 2 2 2 2 2 2 2 2 2 2 2 2 2
left_child=2 4 5 9 8 12 14 19 13 28 -6 22 24 -2 -3 -16 26 -15 -17 -5 25 -21 -7 -14 -1 -11 -9 -22 -4 -13
right_child=1 6 3 7 10 11 -8 16 -10 20 -12 29 23 17 15 18 -18 -19 -20 21 27 -23 -24 -25 -26 -27 -28 -29 -30 -31
leaf_value=-0.84986530712672659 0.54716588310573411 2.0471753553910688 -0.26510869188914227 0.015488723304235575 1.1605913911546979 -0.54661063264917453 2.6584524472554527 0.3207984353981766 1.038623217380408 -0.19882792417819684 1.5168187353346083 -0.41395584344863895 -0.66005550793239054 0.67579338550567636 2.1170583457946779 2.2484221831611966 0.46590001128968739 0.85273391283475442 2.4440851504986103 0.065512158187187239 -0.057598977916504202 0.17739081748507241 -0.47886359061513634 -0.59484666551862453 -0.73975753988538473 -0.094906934865830864 0.22733161002397539 0.04478396164334339 -0.19931414033237257 -0.32490488757257879
leaf_weight=28 23 22 63 33 28 189 24 51 33 26 27 24 189 32 25 23 21 39 26 46 85 88 140 105 70 81 40 23 76 46
leaf_count=28 23 22 63 33 28 189 24 51 33 26 27 24 189 32 25 23 21 39 26 46 85 88 140 105 70 81 40 23 76 46
internal_value=2.24147e-09 1.49741 -0.31757 0.0091633 0.962594 -0.579039 2.30856 0.194885 0.801113 -0.137211 1.33547 -0.4893 -0.670379 0.717732 2.22109 2.27279 0.314624 0.772986 2.35224 0.114581 -0.0777808 0.138985 -0.517782 -0.636767 -0.771217 -0.120159 0.279714 -0.0357952 -0.229135 -0.355437
internal_weight=1726 302 1424 633 182 791 120 279 127 354 55 399 392 94 96 74 112 71 49 167 215 134 329 294 98 107 91 108 139 70
internal_count=1726 302 1424 633 182 791 120 279 127 354 55 399 392 94 96 74 112 71 49 167 215 134 329 294 98 107 91 108 139 70
is_linear=0
shrinkage=0.05


Tree=10
num_leaves=31
num_cat=0
split_feature=6 1 0 1 1 1 0 0 1 1 0 6 3 5 1 6 1 3 4 3 3 0 1 3 1 5 5 3 3 3
split_gain=296375 50815.6 37883.3 7879.18 3117.85 2899.78 1789.4 1325.61 1109.84 834.368 683.086 668.905 372.022 328.522 256.538 247.998 227.768 130.315 127.122 114.761 98.768 98.3372 65.4037 60.1303 55.6797 55.2061 54.6649 49.4717 46.7335 43.883
threshold=0.77696251815496908 -0.31610756558214304 1.8825729387134034 0.162224697123619 -0.68098484425715122 1.4194968104888546 0.45591014124843249 3.0890899466735751 -0.058716326313931755 -0.54330704101463689 -0.88633728483556629 1.0188584199442909 -0.16516047227153793 2.7641799488475121 -0.21075198453053681 0.3452181652956951 -0.75562981829348019 -0.54098574621627871 -0.92567712568074456 -0.17695275000096061 -0.63502011705165751 -1.038075439562266 -0.60369029676350705 0.097013782590224931 0.92874328964703179 1.2441914930156732 0.073067524414849636 -0.41258224707097019 -0.63502011705165751 -1.058286091101744
decision_type=2 2 2 2 2 2 2 2 2 2 2 2 2 2 2 2 2 2 2 2 2 2 2 2 2 2 2 2 2 2
left_child=1 4 5 8 10 11 15 12 14 22 21 24 -4 -14 -3 20 23 -10 -16 -13 -5 -1 29 -12 -2 -21 -19 -17 -18 -6
right_child=2 3 7 6 9 -7 -8 -9 17 -11 16 19 13 -15 18 27 28 26 -20 25 -22 -23 -24 -25 -26 -27 -28 -29 -30 -31
leaf_value=-0.78764191695622043 0.65669079477136794 -0.19830464001783391 1.9910778828156301 0.07894014132519564 -0.54476968646049506 1.3908593286786761 0.56449025163845146 2.5255298932393391 -0.030895745595787755 -0.29514706706514166 -0.6476365421890119 0.86373408555984499 2.0891203909209284 2.3322441498438518 -0.21025895618257071 0.22921842469109432 -0.57515608258994233 0.047676390835988347 -0.078397401253171017 0.95989976269858224 0.19692112750866836 -0.68887111194550055 -0.44228334186457785 -0.59189591352967008 0.77196087837219241 1.0671437763032461 0.12948775517529454 0.31138004043646028 -0.52574391913624996 -0.4762907192624849
leaf_weight=42 22 97 39 24 32 35 49 24 45 98 109 20 33 24 21 27 83 69 141 28 68 63 119 87 20 21 29 57 113 87
leaf_count=42 22 97 39 24 32 35 49 24 45 98 109 20 33 24 21 27 83 69 141 28 68 63 119 87 20 21 29 57 113 87
internal_value=1.37705e-09 -0.279663 1.53499 0.0603385 -0.535583 0.99403 0.297257 2.19316 -0.072265 -0.417935 -0.615119 0.868904 2.11007 2.19149 -0.133996 0.222857 -0.584781 0.039542 -0.0954906 0.964665 0.166143 -0.728379 -0.468494 -0.622895 0.711581 1.00586 0.0718859 0.284971 -0.546668 -0.494705
internal_weight=1726 1460 266 627 833 146 225 120 402 336 497 111 96 57 259 176 392 143 162 69 92 105 238 196 42 49 98 84 196 119
internal_count=1726 1460 266 627 833 146 225 120 402 336 497 111 96 57 259 176 392 143 162 69 92 105 238 196 42 49 98 84 196 119
is_linear=0
shrinkage=0.05


Tree=11
num_leaves=31
num_cat=0
split_feature=6 1 0 6 0 6 1 0 1 4 1 1 0 3 1 5 3 5 1 3 3 3 4 1 0 5 5 4 0 6
split_gain=267495 42498.5 39807.2 5662.17 2410.48 2211.45 2117.25 1042.66 900.669 652.328 624.584 519.556 401.657 392.621 233.388 187.134 139.018 146.936 138.661 113.394 111.057 107.472 101.938 97.7647 75.8555 64.9389 64.1021 63.6272 56.4347 55.4487
threshold=0.57677504836035076 1.8122270682471562 -0.37622614442690655 0.022151773906817624 2.0269700464007356 1.0188584199442909 -0.72029505144035955 3.0890899466735751 0.25119720754849723 1.9572666810659367 -0.17740287299734073 -0.55558957542573928 -0.94002919785364203 -0.51361174184761993 0.42352384381413516 2.7971606348734235 -0.041023060820377731 0.76977275276829049 -0.64666228545005444 -0.93855159442354774 -0.29511751849952955 -0.17695275000096061 -0.01085903293471603 0.097482516730506286 2.9805215745035887 -0.079664035115826828 -0.2957791023703677 0.028587430981159231 -1.0598901614810263 -0.072730892103169673
decision_type=2 2 2 2 2 2 2 2 2 2 2 2 2 2 2 2 2 2 2 2 2 2 2 2 2 2 2 2 2 2
left_child=2 5 6 10 -3 16 12 13 19 21 26 18 28 -6 27 24 -2 -18 -8 -5 29 -7 -14 -21 -15 -22 -4 -10 -1 -12
right_child=1 4 3 8 7 9 11 -9 14 -11 20 -13 22 15 -16 -17 17 -19 -20 23 25 -23 -24 -25 -26 -27 -28 -29 -30 -31
leaf_value=-0.7679899828774589 0.51574272655305409 1.5113079643249512 -0.23583759035382956 0.010020567554860346 1.8551629304885866 0.82054739713668823 -0.49635242462158208 2.3992533047993976 0.19388278248982552 1.2422929382324219 -0.16460408712255545 -0.32143610170909342 -0.59799040443876872 1.9718561331431073 0.42362021532925698 2.210386033491655 0.57640495872497555 0.73932608789013277 -0.4321121498516628 0.059578912348850911 -0.059375768496752961 0.95768849658966071 -0.52493908564249681 0.15193283228497756 2.1037028217315674 0.022146002149222316 -0.17050901202507962 0.27443580501007314 -0.67900607829191251 -0.080843160758095403
leaf_weight=28 21 20 70 31 24 20 210 24 39 20 29 70 234 24 22 22 25 31 140 46 76 50 60 76 20 36 81 66 49 62
leaf_count=28 21 20 70 31 24 20 210 24 39 20 29 70 234 24 22 22 25 31 140 46 76 50 60 76 20 36 81 66 49 62
internal_value=-3.78669e-09 1.35435 -0.286077 0.00910259 2.01761 0.822162 -0.522669 2.10643 0.177114 0.990458 -0.123788 -0.445786 -0.609707 2.02834 0.275542 2.09132 0.625452 0.666593 -0.470656 0.0954128 -0.0665079 0.918505 -0.583082 0.117111 2.03179 -0.0331723 -0.200794 0.244516 -0.711364 -0.107536
internal_weight=1726 301 1425 634 134 167 791 114 280 90 354 420 371 90 127 66 77 56 350 153 203 70 294 122 44 112 151 105 77 91
internal_count=1726 301 1425 634 134 167 791 114 280 90 354 420 371 90 127 66 77 56 350 153 203 70 294 122 44 112 151 105 77 91
is_linear=0
shrinkage=0.05


Tree=12
num_leaves=31
num_cat=0
split_feature=6 1 5 1 1 1 0 1 0 1 0 6 1 3 1 1 3 1 3 3 0 5 3 3 5 3 5 6 3 3
split_gain=241518 41378 30878.8 6416.61 2549.42 2336.48 1234.47 1175.75 1075.69 681.289 560.432 534.209 284.843 293.699 207.428 187.634 143.867 121.191 108.904 93.3187 79.9618 77.3538 62.4198 59.829 56.6062 51.6328 50.5587 47.0361 40.39 39.5051
threshold=0.77696251815496908 -0.31610756558214304 1.9144315370100526 0.2076909670558624 -0.68098484425715122 1.4194968104888546 0.45591014124843249 -0.058716326313931755 3.0890899466735751 -0.49576877406186798 -0.88633728483556629 1.0188584199442909 2.7989769024032993 0.016330120055382751 -0.21075198453053681 -0.75562981829348019 -0.35412527099967361 0.33927311038233915 -1.0086402553030818 -0.17695275000096061 -1.038075439562266 0.073067524414849636 -1.0719467414045323 -0.51361174184761993 2.7459347051846001 0.097013782590224931 1.2378112598577327 0.96528996188115535 -0.63502011705165751 1.6285631420141697
decision_type=2 2 2 2 2 2 2 2 2 2 2 2 2 2 2 2 2 2 2 2 2 2 2 2 2 2 2 2 2 2
left_child=1 4 5 7 10 11 17 14 12 22 20 27 24 -14 -3 25 -9 23 -16 -13 -1 -18 -6 -5 -4 -12 -21 -2 -17 -24
right_child=2 3 8 6 9 -7 -8 16 -10 -11 15 19 13 -15 18 28 21 -19 -20 26 -22 -23 29 -25 -26 -27 -28 -29 -30 -31
leaf_value=-0.71134339400700164 0.59145063672746934 -0.17892107259981413 1.7465008211135864 0.10766662333322607 -0.47289268504018367 1.2534803199768068 0.50819028202368288 -0.017020480813491241 2.2792906125386554 -0.26018589158634564 -0.58535518033788836 0.77952000856399539 1.8805555312864244 2.1163714864979624 -0.161821554158185 -0.51972659869366378 0.044507063266176448 0.26576451600437434 -0.064166568235307933 0.85368409778760823 -0.6222776079934742 0.12770421541467006 -0.41571305264307806 0.20396309395631157 1.862725977464156 -0.53370307341389267 0.95545309140132029 0.69727635610671279 -0.47379022783937708 -0.34161928415298465
leaf_weight=42 21 97 20 23 46 35 49 57 24 91 109 20 31 23 37 83 65 71 125 23 63 49 179 54 22 87 26 21 113 20
leaf_count=42 21 97 20 23 46 35 49 57 24 91 109 20 31 23 37 83 65 71 125 23 63 49 179 54 22 87 26 21 113 20
internal_value=9.26035e-10 -0.252458 1.38567 0.0543504 -0.483393 0.897274 0.290665 -0.0539146 1.97989 -0.377009 -0.555315 0.784957 1.90504 1.981 -0.121095 -0.527835 0.047838 0.218646 -0.0864705 0.870535 -0.657904 0.0802672 -0.4204 0.175199 1.80738 -0.562428 0.907684 0.644363 -0.493243 -0.408266
internal_weight=1726 1460 266 627 833 146 197 430 120 336 497 111 96 54 259 392 171 148 162 69 105 114 245 77 42 196 49 42 196 199
internal_count=1726 1460 266 627 833 146 197 430 120 336 497 111 96 54 259 392 171 148 162 69 105 114 245 77 42 196 49 42 196 199
is_linear=0
shrinkage=0.05


Tree=13
num_leaves=31
num_cat=0
split_feature=6 1 5 1 1 1 0 1 0 1 0 6 3 1 1 1 3 3 1 3 6 4 4 2 1 5 3 1 3 3
split_gain=217970 37352.4 27868.2 5553.18 2541.48 2108.67 1114.11 983.585 970.813 698.318 526.428 482.124 258.926 267.841 184.604 176.88 133.687 109.654 109.375 95.2334 88.8027 107.98 73.1482 54.4727 53.5757 47.8162 46.5986 46.4056 43.1785 39.507
threshold=0.77696251815496908 -0.29602216703191131 1.9144315370100526 0.2076909670558624 -0.67137312711873742 1.4194968104888546 0.45591014124843249 -0.022164242618956238 3.0890899466735751 -0.49576877406186798 -0.88633728483556629 1.0188584199442909 -0.57000837640187496 2.7561700080562379 -0.75562981829348019 -0.17740287299734073 0.069911602172446144 -0.22324779242255569 0.33927311038233915 -0.92321403907189559 1.4236106642072586 1.5407231656127081 -0.26753454007739358 0.58111301664461812 -0.58363550226055338 0.073067524414849636 0.097013782590224931 0.92874328964703179 -0.54635096713730491 0.30726040720684994
decision_type=2 2 2 2 2 2 2 2 2 2 2 2 2 2 2 2 2 2 2 2 2 2 2 2 2 2 2 2 2 2
left_child=1 4 5 7 10 11 18 15 12 24 22 27 -4 -14 26 29 -15 -9 23 -17 21 -13 -1 -5 -6 -19 -12 -2 -16 -3
right_child=2 3 8 6 9 -7 -8 17 -10 -11 14 20 13 16 28 19 -18 25 -20 -21 -22 -23 -24 -25 -26 -27 -28 -29 -30 -31
leaf_value=-0.69256799467678731 0.56203418428247631 -0.18281029347450503 1.6591866579922763 0.19734298646450044 -0.4137994357517788 1.1908062771388463 0.48278076016173072 -0.0018198780835055831 2.165326150258382 -0.24125999019259498 -0.55608743177641429 0.70139209985733031 1.7213857803344728 1.8415871734619143 -0.49202185032215529 -0.14126510366797448 2.0067972898483277 0.051467729116580929 0.25247629053995641 -0.052878916180634408 0.91579367399215705 0.85240875934732374 -0.5992295321665313 0.10921010325352352 -0.36271904381838715 0.12131900081829149 -0.50701791719458578 0.66726755857467657 -0.44642649066859286 -0.11509044147802122
leaf_weight=29 22 62 22 50 154 35 49 55 24 105 109 20 25 25 94 40 24 49 71 128 20 29 76 27 77 49 87 20 116 33
leaf_count=29 22 62 22 50 154 35 49 55 24 105 109 20 25 25 94 40 24 49 71 128 20 29 76 27 77 49 87 20 116 33
internal_value=-5.00144e-10 -0.239835 1.31639 0.0574438 -0.454985 0.85241 0.276131 -0.0461175 1.88089 -0.348175 -0.525216 0.745709 1.80979 1.85456 -0.499408 -0.104758 1.92251 0.0546827 0.207714 -0.0739232 0.827008 0.790769 -0.625009 0.166439 -0.396773 0.0863934 -0.534307 0.612145 -0.466836 -0.159287
internal_weight=1726 1460 266 613 847 146 197 416 120 336 511 111 96 74 406 263 49 153 148 168 69 49 105 77 231 98 196 42 210 95
internal_count=1726 1460 266 613 847 146 197 416 120 336 511 111 96 74 406 263 49 153 148 168 69 49 105 77 231 98 196 42 210 95
is_linear=0
shrinkage=0.05


Tree=14
num_leaves=31
num_cat=0
split_feature=0 5 0 6 0 1 6 0 1 1 1 6 3 1 3 6 5 3 3 1 5 4 1 0 0 3 6 3 5 4
split_gain=196764 31372.4 29280 4157.89 2156.48 1562.45 1386.89 760.146 657.579 451.381 358.7 324.298 320.955 294.969 238.1 145.89 143.157 105.381 101.387 93.4572 90.3109 73.901 69.175 61.5726 59.2292 58.4442 57.4864 55.9213 53.1931 52.8564
threshold=0.57709765310957162 1.6925454504690327 -0.37622614442690655 0.022151773906817624 2.0269700464007356 -0.70969724743663509 1.0188584199442909 3.0890899466735751 0.27146630125676485 -0.21075198453053681 -0.57140055854941652 -0.88560920045712443 -0.11329195525808185 1.3731387527353742 -0.26662211491475168 0.48953245589850919 2.7641799488475121 -0.36667851980855759 -1.2020207393152109 0.108281054667624 0.83506175657769066 -0.3734218901700766 -0.80889876600052102 -0.53297367948468899 -1.0598901614810263 1.0000000180025095e-35 -0.063966198396470844 -0.61320116160668603 -0.079664035115826828 -0.48197453084332487
decision_type=2 2 2 2 2 2 2 2 2 2 2 2 2 2 2 2 2 2 2 2 2 2 2 2 2 2 2 2 2 2
left_child=2 6 5 9 -3 11 14 12 18 -4 21 24 27 25 -2 -10 -14 26 -5 -20 -16 -7 -13 -12 -1 -8 -11 -6 -19 -24
right_child=1 4 3 8 7 10 13 -9 15 17 23 22 16 -15 20 -17 -18 28 19 -21 -22 -23 29 -25 -26 -27 -28 -29 -30 -31
leaf_value=-0.65939489773341586 0.39417610537438169 1.285571599006653 -0.17629522055173094 -0.00410364050231874 1.575677218437195 -0.43878434499104818 0.70193307757377621 2.057059892018636 0.2123184281236985 -0.14446627086117156 -0.32985274280820576 -0.51699703255215212 1.7467298931545683 0.97872732877731328 0.53032896107640759 0.34391154561723986 1.9164823034535285 -0.051637708810581412 0.054075684930113235 0.13734395408082284 0.65740191848189744 -0.38713225478335367 -0.52206522396632604 -0.24976646815027512 -0.5733504343032837 0.8057807842890421 -0.06474930720821935 1.6939156389236452 0.020508919754582976 -0.45159598449329003
leaf_weight=28 21 24 139 25 20 108 20 24 85 42 56 148 27 24 29 28 23 88 55 87 27 193 35 42 70 42 49 20 36 111
leaf_count=28 21 24 139 25 20 108 20 24 85 42 56 148 27 24 29 28 23 88 55 87 27 193 35 42 70 42 49 20 36 111
internal_value=6.42024e-10 1.16157 -0.245357 0.00780119 1.71635 -0.448268 0.69189 1.80704 0.151775 -0.106077 -0.378614 -0.519165 1.74036 0.829894 0.537754 0.244926 1.82482 -0.0606795 0.0887455 0.105092 0.591596 -0.405665 -0.492908 -0.29553 -0.597935 0.772282 -0.101542 1.6348 -0.0306919 -0.468489
internal_weight=1726 301 1425 634 138 791 163 114 280 354 399 392 90 86 77 113 50 215 167 142 56 301 294 98 98 62 91 40 124 146
internal_count=1726 301 1425 634 138 791 163 114 280 354 399 392 90 86 77 113 50 215 167 142 56 301 294 98 98 62 91 40 124 146
is_linear=0
shrinkage=0.05


Tree=15
num_leaves=31
num_cat=0
split_feature=6 0 0 1 1 1 0 0 1 1 1 4 3 5 0 5 4 1 3 3 0 3 3 1 1 1 3 0 4 0
split_gain=177631 31310.3 21546.7 4785.52 2188.73 1576.61 1050.83 787.639 766.385 589.413 421.422 318.807 253.096 222.548 175.697 145.842 135.126 89.1702 89.159 83.5807 56.5782 50.7253 48.8632 46.8648 40.1244 38.7829 30.8611 30.4988 28.6908 28.2114
threshold=0.83308042840236507 -0.29470613238333671 1.8825729387134034 0.2076909670558624 -0.63939958067269431 1.4194968104888546 0.45591014124843249 3.0890899466735751 -0.022164242618956238 -0.80235894711349232 -0.49576877406186798 0.91536068548223593 -0.11329195525808185 2.7202099503091381 -1.0246675640959138 1.1155736479414551 -0.23899876310908277 0.33927311038233915 -0.22324779242255569 -1.3210585008256497 -0.20318873137342716 0.3160987021755069 -0.54098574621627871 -0.15441611458298218 -0.68636488195464407 0.084009954183311128 -0.41258224707097019 2.9726998405521674 -0.49179040819489978 -0.39022736889181403
decision_type=2 2 2 2 2 2 2 2 2 2 2 2 2 2 2 2 2 2 2 2 2 2 2 2 2 2 2 2 2 2
left_child=1 4 5 8 9 11 17 12 16 14 28 -2 27 -14 -1 -13 23 22 -10 -11 -18 -8 -5 -3 -21 -20 -19 -4 -6 -12
right_child=2 3 7 6 10 -7 21 -9 18 19 29 15 13 -15 -16 -17 20 26 25 24 -22 -23 -24 -25 -26 -27 -28 -29 -30 -31
leaf_value=-0.60545313406963741 0.5679603415566522 -0.16620864581178738 1.4978466533479238 0.08521139740589119 -0.39780610402425132 1.0737247398921423 0.37796604514122012 1.9542068799336751 -0.0015645124153128233 -0.47449025856821159 -0.24842276629947482 0.64531351219524036 1.5710050868988039 1.7800859015328545 -0.49996426727971421 0.80239744822184245 -0.12288195150239128 0.18180845127596212 0.043133235283576973 -0.420810495192806 -0.043488276538447335 0.47727993991639883 0.17464541026524136 -0.10225273406163592 -0.37987819512685145 0.10637153171830707 0.25149526418523588 1.5841203355789186 -0.33491833425105966 -0.19658837403569904
leaf_weight=49 37 54 21 21 21 35 20 24 55 57 42 22 20 35 203 45 28 24 44 192 113 36 56 61 87 54 47 20 133 70
leaf_count=49 37 54 21 21 21 35 20 24 55 57 42 22 20 35 203 45 28 24 44 192 113 36 56 61 87 54 47 20 133 70
internal_value=2.22239e-09 -0.213129 1.20719 0.0595155 -0.408834 0.783451 0.257327 1.69801 -0.0391484 -0.462672 -0.289823 0.685763 1.63396 1.70406 -0.520476 0.750818 -0.0920608 0.187522 0.0493848 -0.419318 -0.0592544 0.441811 0.150254 -0.132284 -0.408047 0.0779788 0.227939 1.53993 -0.343494 -0.216026
internal_weight=1726 1467 259 613 854 139 204 120 409 588 266 104 96 55 252 67 256 148 153 336 141 56 77 115 279 98 71 41 154 112
internal_count=1726 1467 259 613 854 139 204 120 409 588 266 104 96 55 252 67 256 148 153 336 141 56 77 115 279 98 71 41 154 112
is_linear=0
shrinkage=0.05


Tree=16
num_leaves=31
num_cat=0
split_feature=5 5 0 6 0 6 6 0 1 1 1 3 6 0 3 5 3 6 5 5 4 3 3 1 6 0 3 5 4 3
split_gain=160347 26025.9 23553.3 3363.83 1750.89 1225.94 1169.92 616.033 490.267 393.107 332.944 265.331 238.772 196.214 193.847 135.146 100.483 100.072 94.1738 87.1379 82.2839 73.7239 71.117 62.1043 55.9534 54.2982 42.8657 39.6147 39.3696 38.4948
threshold=0.62246432432328891 1.6925454504690327 -0.39022736889181403 0.022151773906817624 2.0269700464007356 -0.76970102620982461 1.0188584199442909 3.0890899466735751 0.25119720754849723 -0.22234347422165054 -0.59078276217105252 -0.51361174184761993 1.4236106642072586 -1.0054832011580037 -0.26662211491475168 2.7971606348734235 -0.02494206799198841 0.47380300935748482 0.76977275276829049 -0.55882942033427419 1.5407231656127081 0.19110271375974316 -1.2565425163128283 0.097482516730506286 -0.10672355633568804 2.9805215745035887 0.40119246993223395 -0.079664035115826828 0.29070584405033989 -0.20553527691823562
decision_type=2 2 2 2 2 2 2 2 2 2 2 2 2 2 2 2 2 2 2 2 2 2 2 2 2 2 2 2 2 2
left_child=2 6 5 9 -3 13 14 11 22 29 21 -6 20 -1 -2 25 24 28 -16 -12 -8 -7 -5 -24 -11 -13 -15 -18 -10 -4
right_child=1 4 3 8 7 10 12 -9 17 16 19 15 -14 26 18 -17 27 -19 -20 -21 -22 -23 23 -25 -26 -27 -28 -29 -30 -31
leaf_value=-0.56878013014793394 0.35240242850212827 1.1615432262420655 -0.20314764642715455 -0.0092513146429237993 1.4290293176968893 -0.40483330968786913 0.59809190750122077 1.8564964612325032 0.14949569008587038 -0.13631364121323539 -0.32327162194252018 1.5218692143758139 0.84438545639450491 -0.48217513987560151 0.45562656593322759 1.724350474097512 -0.045372445499250562 0.27401732053512184 0.58346211068770459 -0.24445151002318771 0.72992107457128075 -0.35613097234536673 0.044783884674018504 0.11538902617990972 -0.066297298450064795 1.6334189367294312 -0.44009511022284481 0.019492350058216187 0.21895582395441393 -0.14665859094575834
leaf_weight=56 21 24 50 22 24 191 20 24 51 42 100 24 37 151 25 22 68 39 34 54 29 131 51 80 89 20 101 36 34 76
leaf_count=56 21 24 50 22 24 191 20 24 51 42 100 24 37 151 25 22 68 39 34 54 29 131 51 80 89 20 101 36 34 76
internal_value=-1.55249e-09 1.0423 -0.222826 0.00274977 1.5497 -0.406395 0.620486 1.63142 0.133816 -0.097819 -0.356101 1.5714 0.748509 -0.484123 0.48286 1.62317 -0.0596138 0.207705 0.529295 -0.295633 0.676113 -0.38502 0.0739318 0.0879015 -0.0887453 1.57257 -0.46531 -0.0229192 0.17728 -0.169075
internal_weight=1726 304 1422 638 138 784 166 114 277 361 476 90 86 308 80 66 235 124 59 154 49 322 153 131 131 44 252 104 85 126
internal_count=1726 304 1422 638 138 784 166 114 277 361 476 90 86 308 80 66 235 124 59 154 49 322 153 131 131 44 252 104 85 126
is_linear=0
shrinkage=0.05


Tree=17
num_leaves=31
num_cat=0
split_feature=6 0 0 1 1 1 5 0 1 1 0 4 3 1 0 6 4 1 3 3 2 3 1 1 1 3 1 5 0 0
split_gain=144753 25505.6 17549 3890.91 1785.6 1287.57 854.613 640.099 625.067 481.862 340.657 264.298 217.605 192.976 143.576 118.716 111.338 87.3591 72.4831 71.1689 69.6065 61.3792 46.0377 37.7269 34.3019 33.0474 31.0869 26.9497 25.1252 24.3149
threshold=0.83308042840236507 -0.29470613238333671 1.8825729387134034 0.2076909670558624 -0.63939958067269431 1.4194968104888546 0.52827091619193212 3.0890899466735751 -0.022164242618956238 -0.80235894711349232 -0.53297367948468899 0.91536068548223593 -0.11329195525808185 2.7561700080562379 -1.0246675640959138 1.0693616579173306 -0.23899876310908277 0.37955783435919743 -0.22324779242255569 -1.3210585008256497 0.58111301664461812 0.3160987021755069 -0.10455610633741301 -0.15441611458298218 -0.68636488195464407 -0.02494206799198841 0.084009954183311128 0.23873810440723128 2.9726998405521674 -0.88633728483556629
decision_type=2 2 2 2 2 2 2 2 2 2 2 2 2 2 2 2 2 2 2 2 2 2 2 2 2 2 2 2 2 2
left_child=1 4 5 8 9 11 17 12 16 14 25 -2 28 -14 -1 -13 23 20 -10 -11 27 -8 -18 -3 -21 -6 -20 -5 -4 -16
right_child=2 3 7 6 10 -7 21 -9 18 19 -12 15 13 -15 29 -17 22 -19 26 24 -22 -23 -24 -25 -26 -27 -28 -29 -30 -31
leaf_value=-0.54674150895099249 0.51180370981628831 -0.15002009802394445 1.3495881761823383 0.13610237163882102 -0.32660314831682435 0.96966370173863004 0.33830131120979789 1.7636717081069948 -0.0012679962022230031 -0.42937073121991071 -0.19147191581271944 0.59471843792841994 1.4160727739334107 1.6107672228131975 -0.47941808870860508 0.73129735807093177 -0.079713474285151617 0.22884451683531415 0.039254706215367398 -0.37986023041109246 0.080924376084846608 0.44995992556214337 -0.02239787941798568 -0.092637183669893472 -0.34201412557185384 -0.28074085431940415 0.095871879877867536 0.19668757597605388 1.427893681526184 -0.44070112851201276
leaf_weight=49 37 54 21 31 93 35 20 24 55 57 105 26 20 35 56 41 76 47 44 192 29 32 65 61 87 68 54 45 20 147
leaf_count=49 37 54 21 31 93 35 20 24 55 57 105 26 20 35 56 41 76 47 44 192 29 32 65 61 87 68 54 45 20 147
internal_value=-3.61957e-10 -0.192397 1.08975 0.05368 -0.369031 0.707344 0.232046 1.53271 -0.0352848 -0.417659 -0.261538 0.619064 1.47497 1.53997 -0.469924 0.678297 -0.0830705 0.172188 0.0446703 -0.37846 0.146828 0.407014 -0.0532914 -0.119582 -0.368059 -0.307233 0.0704519 0.171975 1.38779 -0.451382
internal_weight=1726 1467 259 613 854 139 204 120 409 588 266 104 96 55 252 67 256 152 153 336 105 52 141 115 279 161 98 76 41 203
internal_count=1726 1467 259 613 854 139 204 120 409 588 266 104 96 55 252 67 256 152 153 336 105 52 141 115 279 161 98 76 41 203
is_linear=0
shrinkage=0.05


Tree=18
num_leaves=31
num_cat=0
split_feature=6 0 5 1 1 5 5 1 0 1 0 4 1 3 0 4 3 5 2 0 3 3 5 1 3 1 1 1 1 3
split_gain=130675 24335 14058.2 3999.59 1702.32 983.624 918.2 618.086 577.023 459.245 303.687 250.382 179.244 176.918 139.782 100.761 98.7674 98.1049 82.8818 81.0027 80.4407 55.1423 37.8143 37.6124 37.2363 35.6921 33.1922 28.9066 25.5061 21.8658
threshold=0.96528996188115535 -0.29164953746358574 1.9144315370100526 0.23148874115479992 -0.6229468301081702 1.5001204505953785 0.52827091619193212 -0.022164242618956238 3.0890899466735751 -0.78463893794110262 -0.50149760533519916 0.66421514951358351 2.7989769024032993 0.069911602172446144 -1.0054832011580037 -0.28724607773387995 -0.12892603099276612 1.2146137369883307 0.30075877451028976 0.78266970930438806 -0.17695275000096061 -1.2375733023159221 2.7459347051846001 0.097482516730506286 -0.02494206799198841 -0.10455610633741301 -0.68636488195464407 -0.15441611458298218 0.3938315305866647 0.13506231390322723
decision_type=2 2 2 2 2 2 2 2 2 2 2 2 2 2 2 2 2 2 2 2 2 2 2 2 2 2 2 2 2 2
left_child=1 4 5 7 9 11 18 15 12 14 24 -2 22 -14 -1 27 -8 -13 28 -18 -9 -11 -4 -22 -6 -17 -23 -3 -5 -12
right_child=2 3 8 6 10 -7 16 20 -10 21 29 17 13 -15 -16 25 19 -19 -20 -21 23 26 -24 -25 -26 -27 -28 -29 -30 -31
leaf_value=-0.51342482481684004 0.47186644077301027 -0.1439261832452835 1.2741557407379152 0.18384191090410407 -0.30747153464328036 0.94814031283060718 0.30386828839778901 0.00043324802738764343 1.6754881223042806 -0.39775259456326889 -0.20011549019813538 0.59289401317464896 1.3894419612306539 1.5750881830851238 -0.42482099785782773 -0.074267471321907488 0.3761504106521607 0.71134846860712231 0.12437428092134412 0.50935497851598832 0.042411122929591399 -0.35851131954858473 1.3691498192873868 0.10146542005240917 -0.2576907179905818 -0.024963886155025431 -0.3216884291799445 -0.090526509373025477 0.24475149583816527 -0.15442970720204441
leaf_weight=56 22 47 20 55 89 30 20 59 24 62 50 29 33 21 217 76 25 44 58 21 52 172 22 56 65 71 95 55 25 55
leaf_count=56 22 47 20 55 89 30 20 59 24 62 50 29 33 21 217 76 25 44 58 21 52 172 22 56 65 71 95 55 25 55
internal_value=-1.1604e-09 -0.17695 1.06965 0.0618938 -0.34894 0.698548 0.243242 -0.0270367 1.4562 -0.395055 -0.241754 0.61973 1.40138 1.46164 -0.442996 -0.0769488 0.39663 0.664291 0.169883 0.436961 0.0473833 -0.355274 1.32391 0.0730319 -0.28646 -0.0504542 -0.34541 -0.115132 0.202876 -0.176185
internal_weight=1726 1481 245 620 861 125 204 416 120 602 259 95 96 54 273 249 66 73 138 46 167 329 42 108 154 147 267 102 80 105
internal_count=1726 1481 245 620 861 125 204 416 120 602 259 95 96 54 273 249 66 73 138 46 167 329 42 108 154 147 267 102 80 105
is_linear=0
shrinkage=0.05


Tree=19
num_leaves=31
num_cat=0
split_feature=1 1 5 1 5 1 4 4 5 1 1 6 6 0 4 3 1 3 5 1 6 4 3 0 1 4 1 3 5 5
split_gain=117939 19040 16710.2 2633.25 1289.97 1257.58 660.623 456.139 448.834 443.027 318.304 286.791 165.57 156.117 135.435 101.339 88.253 83.0342 80.1272 73.1031 67.43 63.9956 61.3561 42.8568 41.0732 34.7365 30.4991 30.4603 29.4946 29.2575
threshold=0.8030601249983047 -0.31610756558214304 1.6925454504690327 0.162224697123619 2.5934959065050305 -0.68098484425715122 0.91536068548223593 0.44271229430828046 0.43347251370110246 -0.079417670040041147 -0.54330704101463689 -0.86838808766637687 1.3533177853373923 3.0890899466735751 -1.5650207453833367 -1.058286091101744 -0.75562981829348019 -0.48373699892566396 0.25675380446384211 -0.22234347422165054 2.818049339479733 -1.0635304949733528 0.085773129298792161 -1.0598901614810263 0.034929127564379742 -0.52705477648949828 0.018491726770329491 0.097013782590224931 -0.62478228124806356 1.1155736479414551
decision_type=2 2 2 2 2 2 2 2 2 2 2 2 2 2 2 2 2 2 2 2 2 2 2 2 2 2 2 2 2 2
left_child=1 5 6 9 -4 11 14 17 15 19 25 23 29 20 -2 -5 27 -6 -17 -3 -9 -21 24 -1 -11 -7 -24 -13 -27 -8
right_child=2 3 4 8 7 10 12 13 -10 22 -12 16 -14 -15 -16 18 -18 -19 -20 21 -22 -23 26 -25 -26 28 -28 -29 -30 -31
leaf_value=-0.51470519474574494 0.32721246067434551 -0.13079112501113446 1.0397060203552246 0.036221287310833024 1.2043072509765627 -0.34665420821734838 0.54167626619338993 1.4979588281540643 0.3310425487724511 -0.070363496315593896 -0.18727385194934146 -0.4103885115864121 0.72952906892106339 1.5917136987050375 0.48591855909766224 0.1151339013957315 -0.34496331579831185 1.348385534286499 0.18783992845565081 -0.15434083878993987 1.3740365940591563 -0.058364373643769688 0.0043225238552770098 -0.44246977985679331 0.0079568993910141481 -0.30921562548433801 0.061515493974799211 -0.37079919991868265 -0.27129607338550665 0.62281150054931644
leaf_weight=28 20 77 30 21 20 28 20 21 37 26 98 107 37 24 41 72 196 20 80 20 23 132 37 77 47 89 63 89 121 25
leaf_count=28 20 77 30 21 20 28 20 21 37 26 98 107 37 24 41 72 196 20 80 20 23 132 37 77 47 89 63 89 121 25
internal_value=3.05069e-10 -0.182263 0.937258 0.0294839 1.32975 -0.337831 0.558485 1.41032 0.172981 -0.0454774 -0.263114 -0.388345 0.651175 1.48913 0.433884 0.139176 -0.368688 1.27635 0.1534 -0.0910997 1.43318 -0.0709929 0.0149129 -0.461733 -0.019938 -0.294342 0.0403541 -0.392412 -0.287367 0.586751
internal_weight=1726 1445 281 612 138 833 143 108 210 402 336 497 82 68 61 173 392 40 152 229 44 152 173 105 73 238 100 196 210 45
internal_count=1726 1445 281 612 138 833 143 108 210 402 336 497 82 68 61 173 392 40 152 229 44 152 173 105 73 238 100 196 210 45
is_linear=0
shrinkage=0.05


Tree=20
num_leaves=31
num_cat=0
split_feature=6 0 0 1 1 5 5 1 0 1 0 4 3 5 0 3 4 5 0 2 4 3 5 0 3 1 6 1 3 3
split_gain=106479 19817.7 11471.3 3255.78 1386.32 796.366 777.806 468.265 467.541 385.851 238.408 203.406 178.418 149 121.302 85.1675 84.2901 80.0139 66.5627 66.1705 61.7471 54.4179 34.856 31.1488 30.9196 25.7926 24.3774 23.4788 21.5363 20.3176
threshold=0.96528996188115535 -0.29164953746358574 1.8825729387134034 0.2189407474665386 -0.6131027823662748 1.5001204505953785 0.52827091619193212 -0.022164242618956238 3.0890899466735751 -0.77186936103641013 -0.50149760533519916 0.66421514951358351 -0.11329195525808185 2.7641799488475121 -1.0246675640959138 -0.12892603099276612 -0.28724607773387995 1.2146137369883307 0.78266970930438806 0.30075877451028976 -1.0635304949733528 -0.041023060820377731 0.073067524414849636 -0.2050388231245896 -0.02494206799198841 0.38559642601163518 -0.8601449840614136 -0.15441611458298218 -0.61320116160668603 -1.1019363412818839
decision_type=2 2 2 2 2 2 2 2 2 2 2 2 2 2 2 2 2 2 2 2 2 2 2 2 2 2 2 2 2 2
left_child=1 4 5 7 9 11 19 16 12 14 24 -2 28 -14 -1 -8 27 -13 -17 25 -9 -11 -22 -18 -6 -5 -16 -3 -4 -29
right_child=2 3 8 6 10 -7 15 20 -10 21 -12 17 13 -15 26 18 23 -19 -20 -21 22 -23 -24 -25 -26 -27 -28 29 -30 -31
leaf_value=-0.46954580423783282 0.4261413758451289 -0.1302479875769387 1.1493126106262206 0.15963781883842068 -0.27645384059555228 0.85491455872853594 0.27148241758346559 -0.028685839826034176 1.5121279875437419 -0.33761270354775824 -0.15876501151493619 0.53509876974697768 1.2544757992029192 1.4213178178538448 -0.40629569957782696 0.33994823455810552 -0.094793869440372172 0.642075409672477 0.46069756121862504 0.11036135849232476 0.029964676079606373 -0.29643875187949131 0.081228987529637323 -0.034472672637428876 -0.22979752918084465 0.21823961521897997 -0.37209037757067948 -0.11089701344226968 1.2218101342519125 -0.050027184718503405
leaf_weight=49 22 47 20 57 87 30 20 27 24 170 105 29 32 23 77 25 26 44 21 60 70 152 63 121 60 28 161 29 21 26
leaf_count=49 22 47 20 57 87 30 20 27 24 170 105 29 32 23 77 25 26 44 21 60 70 152 63 121 60 28 161 29 21 26
internal_value=6.51359e-10 -0.15973 0.965553 0.055808 -0.314938 0.630334 0.215331 -0.0264884 1.31474 -0.35575 -0.216308 0.559414 1.26539 1.32425 -0.397906 0.357621 -0.0693743 0.599578 0.395073 0.150564 0.0402527 -0.318177 0.0542478 -0.0451417 -0.25741 0.178942 -0.383157 -0.104298 1.18645 -0.0821222
internal_weight=1726 1481 245 620 861 125 211 409 120 609 252 95 96 55 287 66 249 73 46 145 160 322 133 147 147 85 238 102 41 55
internal_count=1726 1481 245 620 861 125 211 409 120 609 252 95 96 55 287 66 249 73 46 145 160 322 133 147 147 85 238 102 41 55
is_linear=0
shrinkage=0.05


Tree=21
num_leaves=31
num_cat=0
split_feature=6 0 5 1 5 5 5 1 1 1 0 4 3 4 0 3 3 1 6 2 0 3 4 3 1 1 1 1 3 1
split_gain=96097.4 17885.5 10361.8 2940.47 1254.12 715.781 672.064 452.537 422.439 331.25 234.339 183.573 112.949 88.9923 88.6593 76.8637 75.7573 91.4611 72.6515 62.063 60.0728 59.2693 57.4481 40.416 37.9017 31.6496 30.4412 23.4133 19.6372 18.7946
threshold=0.96528996188115535 -0.29164953746358574 1.9144315370100526 0.23148874115479992 -0.62478228124806356 1.5001204505953785 0.52827091619193212 0.018491726770329491 2.872666027369466 -0.81619035301566945 -0.50149760533519916 0.66421514951358351 0.36449393597540986 -0.24238685315058997 -1.0246675640959138 -0.12892603099276612 -0.42432058681981449 2.742316353421185 1.1302985564316261 0.30075877451028976 0.78266970930438806 -1.2565425163128283 -0.63443635631905126 -0.02494206799198841 -0.085668513896700507 -0.69758773021262566 0.084009954183311128 -0.15441611458298218 0.061576187044575494 0.38559642601163518
decision_type=2 2 2 2 2 2 2 2 2 2 2 2 2 2 2 2 2 2 2 2 2 2 2 2 2 2 2 2 2 2
left_child=1 4 5 7 9 11 19 13 16 14 23 -2 -10 27 -1 -8 -4 -18 -13 29 -17 -9 -11 -6 -15 -24 -23 -3 -12 -5
right_child=2 3 8 6 10 -7 15 21 12 22 28 18 -14 24 -16 20 17 -19 -20 -21 -22 26 25 -25 -26 -27 -28 -29 -30 -31
leaf_value=-0.44606853601883867 0.40483430298891937 -0.12268857203271924 1.0898499870300293 0.15651747928215909 -0.26745239024360978 0.81159432570139567 0.25790829688310624 -0.01700055398077013 1.2992212704249793 -0.35498203342243778 -0.1743898181865613 0.50988106886545814 1.4547953033447267 -0.05685145098421919 -0.37029728221369318 0.32295082473754883 1.1237898304348899 1.2589346701099027 0.61126258206921957 0.10637020887485867 0.43766267640250067 0.030803716731458611 -0.31601733216425271 -0.21639396520761345 -0.0043907720595598226 -0.28371210182812201 0.08129335109972291 -0.076763199758715928 -0.1309841841982122 0.2073276323931558
leaf_weight=49 22 49 20 52 96 30 20 31 28 59 48 30 20 95 182 25 21 31 43 58 21 51 164 65 54 141 72 64 57 28
leaf_count=49 22 49 20 52 96 30 20 31 28 59 48 30 20 95 182 25 21 31 43 58 21 51 164 65 54 141 72 64 57 28
internal_value=-1.42974e-09 -0.151744 0.917276 0.0530176 -0.299191 0.598679 0.208512 -0.0232343 1.24915 -0.339539 -0.208939 0.531443 1.36404 -0.0632159 -0.38637 0.33974 1.17255 1.20436 0.569599 0.14575 0.375319 0.0447863 -0.309819 -0.246839 -0.0378389 -0.301083 0.0603586 -0.0966777 -0.150827 0.174301
internal_weight=1726 1481 245 620 861 125 204 416 120 595 266 95 48 262 231 66 72 52 73 138 46 154 364 161 149 305 123 113 105 80
internal_count=1726 1481 245 620 861 125 204 416 120 595 266 95 48 262 231 66 72 52 73 138 46 154 364 161 149 305 123 113 105 80
is_linear=0
shrinkage=0.05


Tree=22
num_leaves=31
num_cat=0
split_feature=6 1 1 1 1 5 1 5 4 1 1 6 4 5 4 3 3 5 3 1 3 1 1 0 3 5 1 3 3 3
split_gain=86748.1 14458.1 11664.7 2119.9 934.764 802.789 478.075 417.973 348.413 325.007 275.418 180.308 156.947 124.263 83.1994 82.1377 62.9285 61.4896 58.5096 51.2842 47.8855 42.2021 34.4045 29.9717 27.0475 25.8106 23.4566 22.904 22.5419 19.2411
threshold=0.72941015296183842 -0.31610756558214304 1.8122270682471562 0.162224697123619 -0.69464014180796207 2.5934959065050305 1.2891589745203853 0.43347251370110246 0.44271229430828046 -0.079417670040041147 -0.54330704101463689 -0.88560920045712443 1.312290065717802 2.9305983239898232 1.5744855624893919 -1.058286091101744 -0.48373699892566396 0.25675380446384211 -1.0086402553030818 -0.21075198453053681 -0.5625532959892533 -0.76353894084024254 -0.60369029676350705 -1.0598901614810263 0.50132555352753716 -0.050752792891463887 0.046807452866783596 0.40119246993223395 -0.17695275000096061 0.0049050498139968134
decision_type=2 2 2 2 2 2 2 2 2 2 2 2 2 2 2 2 2 2 2 2 2 2 2 2 2 2 2 2 2 2
left_child=1 4 6 9 11 -4 12 15 16 18 22 23 28 -10 -8 -5 -7 -17 -3 -20 26 27 24 -1 -6 -22 -11 -13 -2 -23
right_child=2 3 5 7 10 8 14 -9 13 20 -12 21 -14 -15 -16 17 -18 -19 19 -21 25 29 -24 -25 -26 -27 -28 -29 -30 -31
leaf_value=-0.44318920544215612 0.33557599295269358 -0.12581020021438599 0.90121772839472847 0.026719890641314643 -0.28695236986333672 1.03088538646698 0.56126100100003762 0.29046715814206336 1.2034992822011312 -0.069794964790344236 -0.1609492852979777 -0.35135826329390207 0.50931533575057986 1.3396257325222618 0.69181124231089719 0.098693306288785421 1.1563131713867187 0.16238479290157559 -0.094743744788479203 -0.040845494959736245 -0.01107630596560394 -0.31733811367517228 -0.23699552552038883 -0.38198085308074953 -0.24627058927829451 0.043020114162525561 -0.00076870721823070205 -0.31627853042200993 0.40132301002740861 -0.28053294857343042
leaf_weight=28 22 50 26 21 110 20 26 45 30 20 98 120 36 38 23 72 20 80 79 100 29 87 119 70 65 92 32 76 32 60
leaf_count=28 22 50 26 21 110 20 26 45 30 20 98 120 36 38 23 72 20 80 79 100 29 87 119 70 65 92 32 76 32 60
internal_value=1.30271e-09 -0.153648 0.81777 0.0291696 -0.28972 1.15064 0.496869 0.154719 1.21069 -0.0389146 -0.23354 -0.339656 0.428448 1.27957 0.62254 0.119409 1.0936 0.132215 -0.0779905 -0.064633 0.0128101 -0.322567 -0.257737 -0.399469 -0.271842 0.0300549 -0.0273173 -0.337756 0.374537 -0.302316
internal_weight=1726 1453 273 620 833 134 139 218 108 402 392 441 90 68 49 173 40 152 229 179 173 343 294 98 175 121 52 196 54 147
internal_count=1726 1453 273 620 833 134 139 218 108 402 392 441 90 68 49 173 40 152 229 179 173 343 294 98 175 121 52 196 54 147
is_linear=0
shrinkage=0.05


Tree=23
num_leaves=31
num_cat=0
split_feature=6 1 5 1 1 1 5 0 1 1 4 0 3 5 1 0 3 1 5 4 5 3 3 1 4 5 0 3 3 3
split_gain=78324.5 13783.6 9510.55 2226.86 843.624 709.813 507.222 358.927 312.677 248.565 165.343 163.116 126.079 137.192 118.74 118.681 71.9689 63.4374 61.0621 57.9233 53.808 41.2325 41.0845 35.8647 32.6591 29.5725 29.5131 23.5093 22.6875 16.7302
threshold=0.83308042840236507 -0.31610756558214304 1.9144315370100526 0.17562744356252999 -0.69464014180796207 1.3731387527353742 0.52827091619193212 3.0890899466735751 -0.058716326313931755 -0.54330704101463689 0.91536068548223593 -0.88633728483556629 -0.57000837640187496 2.7971606348734235 2.7750516127285212 1.536058514238948 -0.9539248752134607 -0.22234347422165054 0.25675380446384211 -1.1377963790573538 1.1155736479414551 0.3160987021755069 -0.38076097455052277 -0.75562981829348019 -0.56528704441040634 -0.63255826068383625 -1.0598901614810263 0.097013782590224931 -0.36667851980855759 -0.41258224707097019
decision_type=2 2 2 2 2 2 2 2 2 2 2 2 2 2 2 2 2 2 2 2 2 2 2 2 2 2 2 2 2 2
left_child=1 4 5 8 11 10 16 12 17 24 -2 26 -4 14 -14 -7 -5 -3 -18 -19 -12 -8 -10 27 -6 -26 -1 -13 -21 -20
right_child=2 3 7 6 9 15 21 -9 22 -11 20 23 13 -15 -16 -17 18 19 29 28 -22 -23 -24 -25 25 -27 -28 -29 -30 -31
leaf_value=-0.4210297252450671 0.35483456759741816 -0.10666437156788716 0.97937613617290153 0.030137020498514178 -0.28877079615721829 0.61166500394994561 0.24110427014529706 1.3006493528683982 -0.014911207284778358 -0.1529018219636411 0.42927401932803066 -0.33495135372931806 0.97962779771713981 1.2203755161978984 1.1336131772687359 0.77995495080947874 0.095206988124705072 -0.1328044691681862 0.12126005027781835 -0.068010082553353224 0.52580069814409525 0.33262121640145781 0.040598621097044089 -0.28634612747601101 -0.25542243746824045 -0.22150048678740861 -0.36108542541404826 -0.30009793906376281 -0.028827863216089707 0.1718038876540959
leaf_weight=28 33 77 22 20 37 22 20 24 50 98 22 109 21 22 31 20 67 20 22 57 42 32 100 140 129 128 77 87 105 64
leaf_count=28 33 77 22 20 37 22 20 24 50 98 22 109 21 22 31 20 67 20 22 57 42 32 100 140 129 128 77 87 105 64
internal_value=-1.16003e-09 -0.141525 0.801611 0.0341519 -0.275234 0.520093 0.160492 1.1277 -0.0353507 -0.221863 0.445744 -0.322674 1.08447 1.11571 1.07143 0.691803 0.119334 -0.0686206 0.130994 -0.0525252 0.49262 0.297422 0.0220953 -0.305675 -0.244851 -0.238527 -0.377071 -0.319481 -0.0426142 0.158874
internal_weight=1726 1467 259 634 833 139 225 120 409 392 97 441 96 74 52 42 173 259 153 182 64 52 150 336 294 257 105 196 162 86
internal_count=1726 1467 259 634 833 139 225 120 409 392 97 441 96 74 52 42 173 259 153 182 64 52 150 336 294 257 105 196 162 86
is_linear=0
shrinkage=0.05


Tree=24
num_leaves=31
num_cat=0
split_feature=1 1 5 1 0 1 4 6 2 5 1 1 6 3 6 4 3 6 5 3 6 1 1 3 4 5 0 3 5 5
split_gain=70719.8 11392.2 10035.4 1571.76 790.611 761.371 388.436 333.5 281.225 287.243 224.772 162.176 147.865 97.0716 96.7295 90.7714 74.8317 73.2215 49.8695 40.6899 39.8128 34.3508 32.9839 28.6343 25.645 24.4487 24.1848 20.4119 19.6706 16.4313
threshold=0.8030601249983047 -0.31610756558214304 1.6925454504690327 0.084009954183311128 2.0269700464007356 -0.69464014180796207 0.91536068548223593 0.47380300935748482 1.0221695919480791 2.9305983239898232 -0.49576877406186798 -0.10455610633741301 -0.88560920045712443 -1.2565425163128283 1.3533177853373923 -1.5650207453833367 -0.51361174184761993 0.59821108436090575 0.2289180881162439 -1.0086402553030818 -0.015811503083792811 -0.77186936103641013 -0.58622182919077004 -0.43744063783281179 -0.36375404569379005 -0.24683730898627002 -1.0598901614810263 -1.3210585008256497 0.95567984022902841 1.1155736479414551
decision_type=2 2 2 2 2 2 2 2 2 2 2 2 2 2 2 2 2 2 2 2 2 2 2 2 2 2 2 2 2 2
left_child=1 5 6 11 -4 12 15 13 9 -6 22 19 26 -5 29 -2 -10 -9 -15 -3 23 -14 24 -13 -7 -21 -1 -23 -17 -8
right_child=2 3 4 7 8 10 14 17 16 -11 -12 20 21 18 -16 28 -18 -19 -20 25 -22 27 -24 -25 -26 -27 -28 -29 -30 -31
leaf_value=-0.3999782570770809 0.24936776116490364 -0.12594045808440762 0.76910990079243979 -0.0098626937561978895 1.0566033018959893 -0.26829262249397512 0.4202941966056824 0.17844753061852806 0.91889780998229986 1.2660892772674561 -0.14191122418576546 -0.069117838577241505 -0.30534732884200166 0.072253326488577796 0.56320510039458405 0.3438077485561371 1.0455286400658745 0.29325855800083706 0.12605229291467021 -0.087241342541289665 0.012355775003704956 -0.31392475366592409 -0.20644451327376312 -0.012433899985626341 -0.23065448900063834 -0.044905677967108204 -0.34499554463795257 -0.26533096469938755 0.41309376955032351 0.4810975427627564
leaf_weight=28 20 38 24 24 36 66 20 41 20 30 91 37 189 92 37 20 28 21 81 73 85 26 91 56 144 64 70 128 21 25
leaf_count=28 20 38 24 24 36 66 20 41 20 30 91 37 189 92 37 20 28 21 81 73 85 26 91 56 144 64 70 128 21 25
internal_value=-2.49328e-10 -0.141136 0.725773 0.0226534 1.02994 -0.261472 0.43224 0.116199 1.08485 1.15182 -0.21077 -0.0459823 -0.30654 0.0843697 0.503316 0.336696 0.992766 0.217335 0.0974424 -0.0801618 -0.0123788 -0.291064 -0.231588 -0.0349856 -0.242484 -0.0674641 -0.360705 -0.273535 0.379296 0.454074
internal_weight=1726 1445 281 612 138 833 143 259 114 66 392 353 441 197 82 61 48 62 173 175 178 343 301 93 210 137 98 154 41 45
internal_count=1726 1445 281 612 138 833 143 259 114 66 392 353 441 197 82 61 48 62 173 175 178 343 301 93 210 137 98 154 41 45
is_linear=0
shrinkage=0.05


Tree=25
num_leaves=31
num_cat=0
split_feature=6 0 0 1 1 1 5 1 0 1 1 3 4 1 0 4 3 0 4 0 3 3 6 1 6 4 5 6 5 3
split_gain=63836.2 11866.4 6874.68 1982.05 791.865 475.218 457.3 294.568 287.612 211.427 167.826 130.278 116.762 97.2403 92.8171 60.5942 58.7598 51.2398 45.61 40.3009 38.5173 35.5276 29.282 27.6323 26.4257 22.9942 22.3129 18.969 18.8603 18.1618
threshold=0.96528996188115535 -0.29470613238333671 1.8825729387134034 0.2189407474665386 -0.67137312711873742 1.3731387527353742 0.52827091619193212 0.018491726770329491 3.0890899466735751 -0.49576877406186798 -0.83086403328640301 -0.11329195525808185 0.91536068548223593 2.7561700080562379 1.536058514238948 -0.23899876310908277 -0.12892603099276612 0.78266970930438806 0.28616494807549747 -1.038075439562266 -1.2565425163128283 -0.34373229312091907 0.43870996567899095 -0.10455610633741301 -0.74283398640487586 0.049023343898255953 1.2146137369883307 -0.57026873699295544 -0.71813000838603402 -1.4175260699711141
decision_type=2 2 2 2 2 2 2 2 2 2 2 2 2 2 2 2 2 2 2 2 2 2 2 2 2 2 2 2 2 2
left_child=1 4 5 7 10 12 18 15 11 25 19 -4 -2 -13 -7 29 -8 -18 22 -1 -9 24 -5 -17 -12 27 -14 -6 -23 -3
right_child=2 3 8 6 9 14 16 20 -10 -11 21 13 26 -15 -16 23 17 -19 -20 -21 -22 28 -24 -25 -26 -27 -28 -29 -30 -31
leaf_value=-0.36875037011646095 0.32297310673672225 -0.11759385669231415 0.91176816079674694 0.071428049133921215 -0.23594899055909138 0.55428616350347348 0.20387912064790728 -0.015441088511918983 1.1727488795916239 -0.1298048305192164 -0.30543005950209023 0.94157096862792966 0.42176526475835729 1.0797765282222203 0.7031133270263672 -0.053185351384117424 0.25817064046859745 0.36411385990324474 0.15003969301780065 -0.3117808977095019 0.048063176657017481 -0.2635460013541106 0.13283792118231455 -0.010406468412217996 -0.26486375356713932 -0.17796408251712198 0.4830546328515718 -0.20459477098364581 -0.23121712834407121 -0.069589689173685618
leaf_weight=42 23 25 41 55 98 22 20 30 24 112 69 20 27 35 20 76 25 21 60 119 117 107 30 75 96 38 33 95 78 93
leaf_count=42 23 25 41 55 98 22 20 30 24 112 69 20 27 35 20 76 25 21 60 119 117 107 30 75 96 38 33 95 78 93
internal_value=-1.10871e-10 -0.123677 0.747614 0.0414995 -0.244948 0.488107 0.166324 -0.0218127 1.01793 -0.186182 -0.284394 0.97923 0.418757 1.02952 0.625156 -0.0529155 0.275428 0.306536 0.116662 -0.326642 0.0351031 -0.26496 0.0931021 -0.0319376 -0.281828 -0.213516 0.455474 -0.220516 -0.249915 -0.0797601
internal_weight=1726 1481 245 627 854 125 211 416 120 343 511 96 83 55 42 269 66 46 145 161 147 350 85 151 165 231 60 193 185 118
internal_count=1726 1481 245 627 854 125 211 416 120 343 511 96 83 55 42 269 66 46 145 161 147 350 85 151 165 231 60 193 185 118
is_linear=0
shrinkage=0.05


Tree=26
num_leaves=31
num_cat=0
split_feature=6 1 5 1 1 1 0 1 1 1 4 0 3 0 5 3 3 4 3 1 3 0 4 1 3 5 1 3 4 5
split_gain=57612.1 10718.3 6205.24 1584.51 972.938 428.668 303.312 300.542 265.9 261.483 105.378 101.33 85.3495 83.6445 72.7574 59.5548 58.6261 53.4771 51.7055 49.5011 42.2615 37.4928 32.7095 32.0511 20.9683 20.1374 18.5128 18.1642 17.6675 14.3117
threshold=0.96528996188115535 -0.23582573912619451 1.9144315370100526 0.27146630125676485 -0.57896990213612975 1.3731387527353742 0.50898736970415992 0.018491726770329491 -0.75562981829348019 2.872666027369466 0.91536068548223593 -0.4690644281678566 0.36449393597540986 1.536058514238948 -0.90116763027745617 -0.12892603099276612 -0.36667851980855759 -0.44705880687554667 -1.2565425163128283 2.7561700080562379 -0.73097064875032369 0.78266970930438806 0.033748136318541087 0.108281054667624 -0.013215704960747346 1.2146137369883307 -0.68465524981405401 0.40119246993223395 -1.1377963790573538 -0.079664035115826828
decision_type=2 2 2 2 2 2 2 2 2 2 2 2 2 2 2 2 2 2 2 2 2 2 2 2 2 2 2 2 2 2
left_child=1 4 5 7 8 10 22 16 14 17 -2 -6 -11 -7 -1 -8 28 -4 -9 -19 -10 -17 -5 -20 -13 -12 -22 -16 -3 -18
right_child=2 3 9 6 11 13 15 18 20 12 25 24 -14 -15 27 21 29 19 23 -21 26 -23 -24 -25 -26 -27 -28 -29 -30 -31
leaf_value=-0.33583597796303888 0.30682445712711504 -0.1061594192470823 0.83730850458145145 0.087709113686449014 -0.17659184539711081 0.52657183625481341 0.19368516653776169 -0.013758973950858823 -0.25118377385661006 1.0011009897504535 0.40067700280083551 -0.12904607729306297 1.1363384866714479 0.66785392761230478 -0.28895144258226668 0.25250594886866484 -0.029604028475636219 0.87424316860380635 0.02934811623041135 0.97366652950163823 -0.22988858222961428 0.34590816838400706 0.14635798198836189 0.075052491050552242 -0.089285011759826116 0.45890189951116389 -0.2022755849838257 -0.26025687678829657 -0.058540118928067389 0.010548400782447842
leaf_weight=70 23 28 20 36 91 22 20 33 128 28 27 63 20 20 140 22 107 21 68 31 118 21 70 88 70 33 125 91 64 28
leaf_count=70 23 28 20 36 91 22 20 33 128 28 27 63 20 20 140 22 107 21 68 31 118 21 70 88 70 33 125 91 64 28
internal_value=-9.38202e-10 -0.117493 0.710233 0.0489751 -0.22618 0.463685 0.17808 -0.00347371 -0.256262 0.967054 0.397819 -0.135936 1.05745 0.593849 -0.29118 0.264967 -0.0422525 0.906791 0.0431018 0.933515 -0.227932 0.298121 0.126439 0.0551301 -0.108119 0.432701 -0.215684 -0.277648 -0.0730329 -0.0212761
internal_weight=1726 1481 245 585 896 125 169 416 672 120 83 224 48 42 301 63 227 72 189 52 371 43 106 156 133 60 243 231 92 135
internal_count=1726 1481 245 585 896 125 169 416 672 120 83 224 48 42 301 63 227 72 189 52 371 43 106 156 133 60 243 231 92 135
is_linear=0
shrinkage=0.05


Tree=27
num_leaves=31
num_cat=0
split_feature=1 1 5 1 5 1 4 1 4 1 1 6 6 5 3 3 6 4 3 3 5 2 3 6 3 5 3 5 0 3
split_gain=51999.4 8390.19 7380.92 1248.68 608.063 491.994 287.518 249.769 231.922 144.931 142.837 97.1003 85.7931 82.2734 129.437 70.7327 60.7211 50.3422 44.5538 41.5714 35.784 31.611 30.1179 28.9936 24.0426 23.4716 21.3177 20.7139 17.3423 16.0636
threshold=0.8030601249983047 -0.33661922020588675 1.6925454504690327 0.084009954183311128 2.5934959065050305 -0.72029505144035955 0.75974708099162613 0.38559642601163518 0.44271229430828046 -0.57140055854941652 -0.10455610633741301 1.3533177853373923 -0.89113401712054763 2.8474670678587075 0.43402409122705277 -1.1691589913170335 0.59821108436090575 -1.5650207453833367 -1.0086402553030818 -0.48373699892566396 0.2289180881162439 -0.49313891066393306 -1.0719467414045323 -0.015811503083792811 0.097013782590224931 -0.45781789678281043 -0.43744063783281179 -0.24683730898627002 -1.0598901614810263 0.8628133106434045
decision_type=2 2 2 2 2 2 2 2 2 2 2 2 2 2 2 2 2 2 2 2 2 2 2 2 2 2 2 2 2 2
left_child=1 5 6 10 -4 12 17 15 19 22 18 21 28 -10 -15 -5 -9 -2 -3 -6 -17 -8 -7 26 -14 -11 -12 -20 -1 -24
right_child=2 3 4 7 8 9 11 16 13 25 23 -13 24 14 -16 20 -18 -19 27 -21 -22 -23 29 -25 -26 -27 -28 -29 -30 -31
leaf_value=-0.3447500365121024 0.2135376572608948 -0.11549946484358416 0.68405977090199788 -0.0034064352445836578 0.79200919389724733 -0.2395334557386545 0.32972952365875247 0.1500174176936247 0.9202434480190278 -0.163130316393716 -0.059323120084465358 0.48327592091682636 -0.26909371925767062 0.94957171570171006 1.1210870179263028 0.062282552120640225 0.25163789930797759 0.31528555731619562 -0.075278940233726832 0.89395454645156858 0.10991562805206018 0.40939219648187813 -0.20711825453619445 0.010527232606511783 -0.23957231752271577 -0.11801044831470567 -0.010414339412402895 -0.037711908013443464 -0.29745725752815372 -0.17393322478641163
leaf_weight=28 20 46 30 28 20 65 20 49 24 70 37 39 157 22 22 92 21 31 86 20 69 33 213 85 123 49 56 64 63 44
leaf_count=28 20 46 30 28 20 65 20 49 24 70 37 39 157 22 22 92 21 31 86 20 69 33 213 85 123 49 56 64 63 44
internal_value=-9.77484e-10 -0.121023 0.622343 0.0154347 0.883199 -0.2274 0.370608 0.0998226 0.938515 -0.191702 -0.043005 0.423394 -0.269833 0.994711 1.03533 0.0699407 0.180504 0.275384 -0.0724517 0.842982 0.0826967 0.379331 -0.209127 -0.0105806 -0.256125 -0.144552 -0.0298727 -0.0592503 -0.312009 -0.201437
internal_weight=1726 1445 281 633 138 812 143 259 108 441 374 92 371 68 44 189 70 51 196 40 161 53 322 178 280 119 93 150 91 257
internal_count=1726 1445 281 633 138 812 143 259 108 441 374 92 371 68 44 189 70 51 196 40 161 53 322 178 280 119 93 150 91 257
is_linear=0
shrinkage=0.05


Tree=28
num_leaves=31
num_cat=0
split_feature=6 1 0 1 1 1 5 0 1 1 3 4 0 5 0 0 3 3 0 3 3 4 1 3 5 0 6 6 4 6
split_gain=46944.3 8732.96 5063.89 1286.76 792.313 349.33 276.383 220.356 218.887 217.552 105.755 85.8292 81.4009 78.7223 64.4399 56.7868 48.6568 44.948 41.2119 39.3801 36.4528 27.27 20.7798 17.9804 17.044 16.7889 16.5364 16.0625 14.9609 12.5574
threshold=0.96528996188115535 -0.23582573912619451 1.8825729387134034 0.25119720754849723 -0.57896990213612975 1.3731387527353742 0.52827091619193212 3.0890899466735751 -0.77186936103641013 0.018491726770329491 -0.11329195525808185 0.91536068548223593 -0.4690644281678566 2.7641799488475121 1.536058514238948 -1.0054832011580037 -0.36667851980855759 0.050535229067341529 0.71648623478765894 -0.73097064875032369 -1.2565425163128283 0.28616494807549747 0.108281054667624 -0.013215704960747346 -0.63776223266098631 2.9726998405521674 0.43870996567899095 1.1302985564316261 -1.1377963790573538 -0.70238012719322995
decision_type=2 2 2 2 2 2 2 2 2 2 2 2 2 2 2 2 2 2 2 2 2 2 2 2 2 2 2 2 2 2
left_child=1 4 5 9 8 11 21 10 15 16 25 -2 -6 -12 -7 -1 28 -8 -19 29 -11 26 -22 -14 -21 -4 -5 -13 -3 -10
right_child=2 3 7 6 12 14 17 -9 19 20 13 27 23 -15 -16 -17 -18 18 -20 24 22 -23 -24 -25 -26 -27 -28 -29 -30 -31
leaf_value=-0.30953350024563925 0.27681011946304984 -0.096650087088346492 0.74723311832972938 0.063020972747887885 -0.15916642251905505 0.47684304172342479 0.17757005698301576 1.0086272239685059 -0.24880027625025536 -0.012177325260176987 0.83383572697639474 0.36275590487888887 -0.11717418441696772 0.95510796878648851 0.60084992170333873 -0.2534113008738596 -0.019015130873217628 0.22092684308687846 0.31810905933380129 -0.20248368432647307 0.026840924741426377 0.13494837054839501 0.065006639550750464 -0.080354796818324511 -0.17229231769038786 0.81124313592910768 0.11360958874225618 0.41461178883910182 -0.052829895670583937 -0.21695040606317068
leaf_weight=56 23 28 21 35 91 22 22 24 49 32 32 28 63 23 20 231 135 24 20 190 68 52 75 70 62 20 30 32 64 84
leaf_count=56 23 28 21 35 91 22 22 24 49 32 32 28 63 23 20 231 135 24 20 190 68 52 75 70 62 20 30 32 64 84
internal_value=-7.29524e-10 -0.106059 0.641114 0.0442033 -0.204165 0.418391 0.154111 0.873117 -0.231311 -0.00582923 0.839239 0.358932 -0.122727 0.88455 0.535894 -0.264362 -0.0381249 0.235924 0.265101 -0.206673 0.0360629 0.10796 0.0468579 -0.0977956 -0.195056 0.778458 0.0863696 0.390412 -0.0661665 -0.228685
internal_weight=1726 1481 245 585 896 125 183 120 672 402 96 83 224 55 42 287 227 66 44 385 175 117 143 133 252 41 65 60 92 133
internal_count=1726 1481 245 585 896 125 183 120 672 402 96 83 224 55 42 287 227 66 44 385 175 117 143 133 252 41 65 60 92 133
is_linear=0
shrinkage=0.05


Tree=29
num_leaves=31
num_cat=0
split_feature=6 0 0 1 1 0 0 1 2 5 1 6 4 3 0 4 3 0 3 1 4 3 0 5 6 6 3 5 3 3
split_gain=42367.2 7885.18 4581.94 1339.75 505.62 412.706 315.178 192.395 180.4 200.46 125.486 117.624 86.5989 56.9943 36.3783 36.2437 34.9757 43.4042 33.1045 30.3762 31.3661 28.5588 24.8606 21.1128 21.1121 19.2772 18.7162 15.7646 11.774 9.66084
threshold=0.96528996188115535 -0.29569989496148252 2.0269700464007356 0.2076909670558624 -0.67137312711873742 1.417418333159443 0.45591014124843249 -0.050215352557658181 1.0221695919480791 2.9305983239898232 -0.49576877406186798 -0.84619635176476027 0.66421514951358351 -0.51361174184761993 1.1491236891187395 -1.0635304949733528 -0.12892603099276612 0.78266970930438806 -0.41258224707097019 -0.21075198453053681 -0.92567712568074456 0.0049050498139968134 -1.0598901614810263 0.25675380446384211 -0.74283398640487586 0.43870996567899095 1.6285631420141697 0.073067524414849636 -1.2020207393152109 -0.36667851980855759
decision_type=2 2 2 2 2 2 2 2 2 2 2 2 2 2 2 2 2 2 2 2 2 2 2 2 2 2 2 2 2 2
left_child=1 4 5 7 11 12 18 19 9 -4 26 22 -2 -10 -14 -9 -8 -18 25 -3 -21 24 -1 -20 -13 -5 28 -17 -6 -22
right_child=2 3 8 6 10 -7 16 15 13 -11 -12 21 14 -15 -16 27 17 -19 23 20 29 -23 -24 -25 -26 -27 -28 -29 -30 -31
leaf_value=-0.31203586033412389 0.26848971166393976 -0.072337096390673469 0.81494140625 0.031996890099654944 -0.204862261169097 0.56028423020333962 0.16453587256371976 -0.027793334666639569 0.70262862443923957 0.98994398276011164 -0.10760888257196972 -0.24588946724931399 0.35242537074618874 0.81314136981964114 0.42281531826142338 0.018578774415257189 0.20312855408109468 0.29751558985028947 0.079650452962288495 -0.092524865695408409 -0.045895665115924515 -0.20020614823484731 -0.25967197899057082 0.12690595457951229 -0.21412859222163327 0.095804960429668434 -0.12730454653501511 0.053258162903200304 -0.17273703153524023 -0.018411199508234857
leaf_weight=28 22 83 36 29 34 33 20 30 20 30 105 96 45 28 31 79 29 21 39 21 47 153 119 60 115 20 20 56 177 100
leaf_count=28 22 83 36 29 34 33 20 30 20 30 105 96 45 28 31 79 29 21 39 21 47 153 119 60 115 20 20 56 177 100
internal_value=-1.04284e-09 -0.100756 0.609058 0.0325949 -0.200572 0.407348 0.133 -0.0200212 0.840849 0.894488 -0.152931 -0.231898 0.355849 0.767094 0.381137 0.0219175 0.220418 0.242771 0.0916536 -0.0475905 -0.0353645 -0.216653 -0.269646 0.10829 -0.228579 0.058041 -0.173532 0.0329643 -0.177914 -0.0271987
internal_weight=1726 1481 245 634 847 131 218 416 114 66 336 511 98 48 76 165 70 50 148 251 168 364 147 99 211 49 231 135 211 147
internal_count=1726 1481 245 634 847 131 218 416 114 66 336 511 98 48 76 165 70 50 148 251 168 364 147 99 211 49 231 135 211 147
is_linear=0
shrinkage=0.05


Tree=30
num_leaves=31
num_cat=0
split_feature=1 1 0 1 1 0 5 1 6 2 5 4 5 3 4 1 3 5 3 4 0 1 3 4 3 3 5 3 3 1
split_gain=38262.3 7287.91 3903.73 1119.67 647.648 341.752 222.188 200.666 180.426 162.811 180.916 82.1089 66.2275 51.4374 40.7276 38.3555 36.2841 34.764 34.2416 26.2013 21.6144 20.994 18.1133 17.6503 17.0508 16.9431 13.5412 11.43 9.68392 9.09842
threshold=0.96565137860006611 -0.23582573912619451 2.0269700464007356 0.27146630125676485 -0.57896990213612975 1.417418333159443 0.62246432432328891 0.018491726770329491 -0.82750708222210723 1.0221695919480791 2.9305983239898232 0.75974708099162613 -0.45781789678281043 -0.51361174184761993 -0.7404526070969496 -0.69464014180796207 -1.2565425163128283 -0.94309493432984015 0.050535229067341529 0.033748136318541087 1.2138828549683984 0.108281054667624 0.0049050498139968134 0.049023343898255953 -0.083613111139014429 -0.12340295894759772 0.76977275276829049 -1.1691589913170335 -1.4767139830517173 0.40090062785965991
decision_type=2 2 2 2 2 2 2 2 2 2 2 2 2 2 2 2 2 2 2 2 2 2 2 2 2 2 2 2 2 2
left_child=1 4 5 7 8 11 19 14 17 10 -4 -2 -6 -11 -3 22 -9 -1 -8 -5 -13 -18 28 27 -14 -16 -20 -17 -10 -21
right_child=2 3 9 6 12 -7 18 16 15 13 -12 20 24 -15 25 23 21 -19 26 29 -22 -23 -24 -25 -26 -27 -28 -29 -30 -31
leaf_value=-0.28339350807423497 0.25509089849889283 -0.077601083706725735 0.77419433593750009 0.069727585852767032 -0.14351808048866607 0.53227002620697028 0.17057758921926672 -0.012297356793318283 -0.24471900738202612 0.66749719381332406 0.94044677098592122 0.35203069799086628 -0.10851974307463086 0.77248430422374181 -0.042281142428517347 -0.20666816705151608 0.024545026951005536 -0.23552917660701844 0.2185523135321481 0.10766002198060354 0.41230236008053733 0.061535032783550297 -0.18832277152273391 -0.14085942566394807 -0.072418390492598225 -0.011346148122835008 0.2746844053268433 -0.17621686685304702 -0.21072914346500682 0.14357400289897262
leaf_weight=49 20 44 36 36 91 33 22 33 26 20 30 51 58 28 75 38 68 168 21 45 21 88 90 30 75 108 22 163 108 29
leaf_count=49 20 44 36 36 91 33 22 33 26 20 30 51 58 28 75 38 68 168 21 45 21 88 90 30 75 108 22 163 108 29
internal_value=-1.15444e-09 -0.0943797 0.587207 0.0419142 -0.184279 0.394229 0.148022 -0.00272256 -0.208822 0.798806 0.849764 0.344714 -0.11065 0.72874 -0.0344093 -0.19093 0.0353351 -0.246337 0.221313 0.104714 0.36961 0.0454112 -0.205672 -0.176634 -0.0881618 -0.0240244 0.247271 -0.181974 -0.217324 0.121734
internal_weight=1726 1487 239 591 896 125 175 416 672 114 66 92 224 48 227 455 189 217 65 110 72 156 224 231 133 183 43 201 134 74
internal_count=1726 1487 239 591 896 125 175 416 672 114 66 92 224 48 227 455 189 217 65 110 72 156 224 231 133 183 43 201 134 74
is_linear=0
shrinkage=0.05


Tree=31
num_leaves=31
num_cat=0
split_feature=1 6 0 1 5 0 5 1 2 5 6 0 4 3 3 5 6 3 3 3 4 3 0 3 1 6 6 1 6 3
split_gain=34531.7 6578.18 3523.11 1114.44 453.929 308.431 223.699 197.709 146.937 163.276 126.387 82.4152 74.1033 46.4222 36.8413 31.8483 31.6693 30.959 27.38 26.7335 26.0457 22.0325 19.507 17.7059 15.4035 14.3468 12.7792 9.35426 9.19192 7.95992
threshold=0.96565137860006611 -0.26212724838478968 2.0269700464007356 0.25119720754849723 -0.62478228124806356 1.417418333159443 0.62246432432328891 0.018491726770329491 1.0221695919480791 2.9305983239898232 -0.82750708222210723 -0.4690644281678566 0.75974708099162613 -0.51361174184761993 -1.1019363412818839 -0.24683730898627002 -0.96847892042337047 0.27606046382001292 -1.2565425163128283 0.0049050498139968134 0.28616494807549747 -0.02494206799198841 1.2138828549683984 0.16118396332446214 0.084009954183311128 -0.74283398640487586 0.43870996567899095 0.38559642601163518 -0.14664351982567889 0.085773129298792161
decision_type=2 2 2 2 2 2 2 2 2 2 2 2 2 2 2 2 2 2 2 2 2 2 2 2 2 2 2 2 2 2
left_child=1 4 5 7 10 12 20 14 9 -4 16 21 -2 -10 28 -16 -1 -8 -9 25 26 -6 -14 -13 -20 -12 -5 -22 -3 -17
right_child=2 3 8 6 11 -7 17 18 13 -11 19 23 22 -15 15 29 -18 -19 24 -21 27 -23 -24 -25 -26 -27 -28 -29 -30 -31
leaf_value=-0.26938882847221529 0.24233634803444148 -0.099433646723628047 0.7354846398035686 0.053374303717698371 -0.16159404321592682 0.50565651257832844 0.16798539895277759 -0.010857958190172212 0.63412233829498299 0.89342442989349369 -0.21954019069671632 -0.10984749295273606 0.3344291640262978 0.73386008909770428 -0.060959380205001745 -0.029318353523676462 -0.22370459132251286 0.23842240969340006 0.01826537302193031 -0.17143780490931343 0.10211251685113619 -0.12486629128456116 0.39168724332536975 -0.06734185063717317 0.052523879731154965 -0.19009913813988896 0.097846089005470274 0.14221368798842798 -0.055200026346289593 -0.0068279440049082048
leaf_weight=49 20 24 36 35 98 33 26 32 20 30 57 49 51 28 57 74 168 39 51 170 33 70 21 49 92 151 30 26 23 84
leaf_count=49 20 24 36 35 98 33 26 32 20 30 57 49 51 28 57 74 168 39 51 170 33 70 21 49 92 151 30 26 23 84
internal_value=-4.54465e-10 -0.0896607 0.557847 0.033673 -0.179332 0.374518 0.135116 -0.0102003 0.758866 0.807275 -0.203606 -0.125034 0.327479 0.692303 -0.0376863 -0.02892 -0.23402 0.210248 0.0309502 -0.186146 0.0957319 -0.146291 0.351129 -0.0885947 0.0403058 -0.198167 0.0738997 0.119784 -0.0777874 -0.0173614
internal_weight=1726 1487 239 626 861 125 189 437 114 66 595 266 92 48 262 215 217 65 175 378 124 168 72 98 143 208 65 59 47 158
internal_count=1726 1487 239 626 861 125 189 437 114 66 595 266 92 48 262 215 217 65 175 378 124 168 72 98 143 208 65 59 47 158
is_linear=0
shrinkage=0.05


Tree=32
num_leaves=31
num_cat=0
split_feature=6 1 0 1 1 1 1 1 1 1 0 4 3 0 3 4 3 0 3 3 1 3 1 5 4 6 6 5 4 3
split_gain=31171.4 5799.94 3364.66 982.439 374.172 232.5 228.173 149.685 141.425 95.1597 85.0322 55.1495 52.8342 44.8034 43.6358 28.2429 27.9909 35.6577 26.9849 26.3857 24.7555 23.5841 21.1852 19.5001 15.536 15.1163 14.7328 14.6789 13.9237 12.462
threshold=0.96528996188115535 -0.29602216703191131 1.8825729387134034 0.2076909670558624 -0.68098484425715122 1.3731387527353742 0.48989130979718759 2.872666027369466 -0.050215352557658181 -0.49576877406186798 -0.87729205281328115 0.91536068548223593 0.36449393597540986 1.536058514238948 -0.35412527099967361 -1.0635304949733528 -0.12892603099276612 0.78266970930438806 -0.38076097455052277 -0.41258224707097019 2.742316353421185 -1.436778652297954 -0.80235894711349232 -0.24683730898627002 -0.52705477648949828 0.43870996567899095 -0.12059669226825377 0.25675380446384211 -0.26753454007739358 1.6285631420141697
decision_type=2 2 2 2 2 2 2 2 2 2 2 2 2 2 2 2 2 2 2 2 2 2 2 2 2 2 2 2 2 2
left_child=1 4 5 8 10 11 19 14 18 24 28 -2 -9 -7 -4 -10 -8 -18 26 25 -16 -12 -23 -20 -6 -5 -3 -21 -1 -26
right_child=2 3 7 6 9 13 16 12 15 -11 21 -13 -14 -15 20 -17 17 -19 23 27 -22 22 -24 -25 29 -27 -28 -29 -30 -31
leaf_value=-0.2680880365700557 0.22653750893862351 -0.079266780199339762 0.61089244882265736 0.025352289810262881 -0.18454843035766058 0.38749613220041451 0.13739512637257575 0.73559469325201854 -0.02503874347234766 -0.092604618037030809 -0.22079585862159729 0.3176001600424449 0.84199774026870733 0.49089689970016481 0.65097787380218508 0.028595112748400965 0.17220819254716238 0.2571578457241967 -0.053985285996756664 0.069550716695495146 0.72381152425493511 -0.20007414827196618 -0.17415770458487365 -0.015119620649487648 -0.14879187288018048 0.081856047660112397 -0.041057075590503464 0.10908481094796779 -0.2278423816324717 -0.10736844956874847
leaf_weight=29 23 52 24 29 28 22 20 28 30 105 50 60 20 20 20 135 30 21 47 39 28 127 208 103 197 20 49 59 83 20
leaf_count=29 23 52 24 29 28 22 20 28 30 105 50 60 20 20 20 135 30 21 47 39 28 127 208 103 197 20 49 59 83 20
internal_value=-5.64439e-11 -0.0864237 0.522423 0.0279435 -0.17203 0.340874 0.113923 0.711536 -0.0171133 -0.132429 -0.199918 0.292366 0.779929 0.436735 0.66594 0.0188435 0.187528 0.207187 -0.0407502 0.0783729 0.693464 -0.188764 -0.183983 -0.0272975 -0.149497 0.048415 -0.0607294 0.0933519 -0.238263 -0.144974
internal_weight=1726 1481 245 634 847 125 218 120 416 350 497 83 48 42 72 165 71 51 251 147 48 385 335 150 245 49 101 98 112 217
internal_count=1726 1481 245 634 847 125 218 120 416 350 497 83 48 42 72 165 71 51 251 147 48 385 335 150 245 49 101 98 112 217
is_linear=0
shrinkage=0.05


Tree=33
num_leaves=31
num_cat=0
split_feature=1 1 0 1 1 5 5 1 6 2 5 4 0 0 6 3 5 3 4 3 3 5 3 3 3 6 5 3 0 6
split_gain=28142.2 5358.15 2874.33 836.558 455.651 250.66 163.165 155.203 134.101 123.945 142.543 70.8757 45.7108 43.6066 38.6461 36.3043 31.6883 26.1165 24.2885 21.9732 20.3026 15.4448 15.1119 14.2962 13.691 10.3596 10.2557 9.81772 9.81605 9.22666
threshold=0.96565137860006611 -0.24232365562240096 2.0269700464007356 0.27146630125676485 -0.57896990213612975 1.6925454504690327 0.62246432432328891 0.057053892568979629 -0.76970102620982461 1.0221695919480791 2.8474670678587075 0.75974708099162613 -0.39022736889181403 2.8533006908718002 -0.89113401712054763 -0.38076097455052277 1.2734351141425442 0.050535229067341529 0.19362887892101058 0.36449393597540986 0.085773129298792161 -0.079664035115826828 -0.57000837640187496 0.4647980274524221 -1.4175260699711141 -0.65014291855219264 0.76977275276829049 -1.436778652297954 -1.0598901614810263 0.43870996567899095
decision_type=2 2 2 2 2 2 2 2 2 2 2 2 2 2 2 2 2 2 2 2 2 2 2 2 2 2 2 2 2 2
left_child=1 4 5 7 8 11 20 15 14 10 -4 -2 -6 -11 28 24 -13 -8 27 25 29 -17 -14 -16 -3 -10 -19 -9 -1 -5
right_child=2 3 9 6 12 -7 17 18 19 13 -12 16 22 -15 23 21 -18 26 -20 -21 -22 -23 -24 -25 -26 -27 -28 -29 -30 -31
leaf_value=-0.2553905384881156 0.21920214593410492 -0.083370935261249557 0.64913630803426114 0.043742555671412019 -0.11801197629954135 0.48325727681318925 0.14522232819687239 -0.01135645913689033 -0.17378723172580496 0.57222633470188489 0.79670794804890954 0.30520995228977532 -0.10139844465640285 0.66787278101994441 -0.20203908148096572 -0.022307668800924985 0.37552113858136266 0.18720822277523222 0.055227858975529676 -0.14003391110145294 0.11070572337401766 0.013203293923288584 -0.059814360581741145 -0.17563212463654668 -0.040645409587149822 -0.15223765186516636 0.23605833487077194 0.026296920385211711 -0.21981021676744736 0.085539492484061952
leaf_weight=28 20 25 30 23 112 24 22 23 170 22 36 59 31 26 134 113 22 21 75 111 56 42 74 83 75 83 22 70 63 31
leaf_count=28 20 25 30 23 112 24 22 23 170 22 36 59 31 26 134 113 22 21 75 111 56 42 74 83 75 83 22 70 63 31
internal_value=-4.76257e-10 -0.0809417 0.5036 0.034782 -0.158785 0.338009 0.126725 -0.00325587 -0.179126 0.685169 0.72963 0.303494 -0.0957924 0.624035 -0.203408 -0.0278389 0.324307 0.189531 0.0340576 -0.158581 0.089612 -0.0126853 -0.0720916 -0.191939 -0.0513268 -0.166718 0.212201 0.0169848 -0.230758 0.0677371
internal_weight=1726 1487 239 598 889 125 175 423 672 114 66 101 217 48 308 255 81 65 168 364 110 155 105 217 100 253 43 93 91 54
internal_count=1726 1487 239 598 889 125 175 423 672 114 66 101 217 48 308 255 81 65 168 364 110 155 105 217 100 253 43 93 91 54
is_linear=0
shrinkage=0.05


Tree=34
num_leaves=31
num_cat=0
split_feature=6 6 0 1 5 4 5 1 4 6 2 5 1 0 4 0 4 1 3 3 4 5 3 0 4 3 5 6 3 1
split_gain=25399.6 4724.73 2742.55 769.655 336.196 248.312 169.808 120.265 115.195 93.921 69.9656 77.3965 63.5478 60.4228 29.9742 29.8119 26.3749 25.8823 25.3895 24.7506 22.5907 20.925 17.4185 17.1046 16.3547 15.3858 12.7964 10.9924 10.4628 9.78967
threshold=0.96528996188115535 -0.26212724838478968 2.0269700464007356 0.23148874115479992 -0.62478228124806356 2.1547193818083961 0.52827091619193212 -0.050215352557658181 0.10053494369890857 -0.8411370108967825 1.0221695919480791 3.0756905217608375 1.2891589745203853 -0.4690644281678566 1.0484083862046238 1.12275671087808 -1.0635304949733528 -0.72029505144035955 -0.41258224707097019 -1.4561610550066972 0.91536068548223593 -0.24683730898627002 -0.02494206799198841 -1.0507877477068559 -0.43163301055309583 0.16118396332446214 0.073067524414849636 0.43870996567899095 0.47711545728099908 1.3731387527353742
decision_type=2 2 2 2 2 2 2 2 2 2 2 2 2 2 2 2 2 2 2 2 2 2 2 2 2 2 2 2 2 2
left_child=1 4 5 7 9 12 18 19 -4 23 11 -10 14 22 -2 20 -9 24 27 -3 -8 -21 -6 -1 -11 -15 -18 -5 -19 -14
right_child=2 3 8 6 13 -7 15 16 10 17 -12 -13 29 25 -16 -17 26 28 -20 21 -22 -23 -24 -25 -26 -27 -28 -29 -30 -31
leaf_value=-0.23822474956512452 0.2054519101329472 -0.085659276118332697 0.57539884907858718 0.02457954373072695 -0.13887594123275912 0.46469644359920337 0.23313267344520208 -0.022785114436861008 0.6704710427452536 -0.19675718334413345 0.61520954704284669 0.79442858457565313 0.30311880565824967 -0.095678697374402266 0.27742057488514832 0.12178051263093947 0.014194819129579053 -0.15789995499146292 0.090645971554485005 -0.054482201246484632 0.16278748059272766 -0.020048748622602766 -0.106219562292099 -0.19871353469197714 -0.16616757246288094 -0.056055786308585376 0.043666572366719662 0.07348626986145973 -0.13439812467378728 0.34942652034759525
leaf_weight=35 23 22 35 27 98 23 21 31 34 62 25 20 21 49 39 20 79 156 91 62 25 153 70 126 148 49 69 20 68 25
leaf_count=35 23 22 35 27 98 23 21 31 34 62 25 20 21 49 39 20 79 156 91 62 25 153 70 126 148 49 69 20 68 25
internal_value=1.82987e-11 -0.0780133 0.471583 0.0272281 -0.153797 0.315527 0.106781 -0.0117832 0.65091 -0.174687 0.684365 0.716381 0.283759 -0.107068 0.250723 0.172744 0.0191511 -0.162588 0.075233 -0.0351471 0.194902 -0.0299784 -0.125269 -0.207303 -0.175199 -0.0758672 0.027935 0.0453909 -0.150765 0.328286
internal_weight=1726 1481 245 620 861 131 204 416 114 595 79 54 108 266 62 66 179 434 138 237 46 215 168 161 210 98 148 47 224 46
internal_count=1726 1481 245 620 861 131 204 416 114 595 79 54 108 266 62 66 179 434 138 237 46 215 168 161 210 98 148 47 224 46
is_linear=0
shrinkage=0.05


Tree=35
num_leaves=31
num_cat=0
split_feature=1 1 0 1 1 5 1 5 1 4 5 3 4 0 0 4 5 3 3 3 3 5 4 3 5 0 4 6 3 2
split_gain=22932 4366.56 2338.34 666.925 389.977 209.469 128.898 124.419 110.047 103.963 63.1674 94.9699 57.8103 39.1345 35.4389 32.9949 24.4212 22.1342 19.4116 19.061 17.866 16.6634 15.373 14.4722 14.0772 9.3132 7.2917 6.97135 6.94629 5.75077
threshold=0.96565137860006611 -0.23582573912619451 2.0269700464007356 0.27858562628494848 -0.57896990213612975 1.6925454504690327 0.057053892568979629 0.62246432432328891 -0.73198574669714889 0.10053494369890857 2.8474670678587075 0.43402409122705277 0.75974708099162613 -0.39022736889181403 -0.88633728483556629 -1.0635304949733528 1.2734351141425442 0.27606046382001292 -0.93855159442354774 -0.41258224707097019 0.38576473400622979 -0.070663582863873961 -0.46660577100547701 -0.57000837640187496 0.03745689272730552 -1.0598901614810263 -0.31334151935276433 -0.57026873699295544 0.53303941708666025 0.41424037616857706
decision_type=2 2 2 2 2 2 2 2 2 2 2 2 2 2 2 2 2 2 2 2 2 2 2 2 2 2 2 2 2 2
left_child=1 4 5 6 8 12 15 19 14 -4 -11 -12 -2 26 25 -3 -14 -9 -8 -5 27 28 -16 -15 -20 -1 -6 -10 29 -17
right_child=2 3 9 7 13 -7 18 17 20 10 11 -13 16 23 22 21 -18 -19 24 -21 -22 -23 -24 -25 -26 -27 -28 -29 -30 -31
leaf_value=-0.23070978096553257 0.1975629559531808 -0.069217250341815612 0.54662890502384731 0.049751514436737185 -0.12703924928942034 0.4380209192633629 0.001223387640202418 0.13514381830508893 -0.15260336518287659 0.5987103483256172 0.61796940513279131 0.7632789113304832 0.27572220765938193 -0.092427916960282769 -0.18958530537287396 -0.035605956357183687 0.33744683374058115 0.19470175076753668 0.010012220231623487 0.096645140999721157 -0.12362419697973465 0.01181034907959856 -0.16203903685777615 -0.053002503140581941 0.049325785170889126 -0.19703616600532037 -0.098524470903255335 -0.12897754810951853 -0.0083974924511634377 -0.0077976915823376701
leaf_weight=28 20 35 35 31 31 24 40 26 200 34 23 22 59 33 75 97 22 39 29 72 99 41 156 79 106 77 81 37 52 23
leaf_count=28 20 35 35 31 31 24 40 26 200 34 23 22 59 33 75 97 22 39 29 72 99 41 156 79 106 77 81 37 52 23
internal_value=-1.68795e-10 -0.0730658 0.454597 0.0324323 -0.142652 0.305242 -0.00104102 0.116713 -0.161697 0.618365 0.650147 0.68901 0.27369 -0.0855179 -0.18193 -0.0242265 0.292487 0.170879 0.0318161 0.0825315 -0.141463 -0.0168337 -0.170983 -0.0646189 0.0408806 -0.206016 -0.106417 -0.148915 -0.0236616 -0.030276
internal_weight=1726 1487 239 591 896 125 423 168 672 114 79 45 101 224 336 248 81 65 175 103 336 213 231 112 135 105 112 237 172 120
internal_count=1726 1487 239 591 896 125 423 168 672 114 79 45 101 224 336 248 81 65 175 103 336 213 231 112 135 105 112 237 172 120
is_linear=0
shrinkage=0.05


Tree=36
num_leaves=31
num_cat=0
split_feature=6 1 0 1 1 1 5 6 1 5 3 0 0 4 0 3 0 5 3 3 3 3 1 4 6 1 6 0 4 1
split_gain=20698.8 3849.78 2232.39 651.955 250.071 153.511 144.148 100.783 100.268 75.1295 71.1348 73.3864 47.8979 35.8125 30.8748 23.4969 20.5721 26.364 18.1692 17.203 16.007 13.2361 11.8842 11.1293 11.0064 10.8487 10.5102 10.465 13.2561 9.12738
threshold=0.96528996188115535 -0.29602216703191131 1.8825729387134034 0.2189407474665386 -0.69464014180796207 1.3731387527353742 0.43347251370110246 3.0961356449887529 -0.071375157096533873 -0.56955552135424148 0.88442472937913219 2.8533006908718002 -0.88633728483556629 0.91536068548223593 1.536058514238948 0.061576187044575494 1.12275671087808 0.72279745330171952 -0.41258224707097019 -1.4175260699711141 -1.4767139830517173 -0.11329195525808185 -0.19965529190240874 -0.63443635631905126 1.0693616579173306 -0.80235894711349232 0.43870996567899095 -0.39022736889181403 -0.12714867419844397 0.034929127564379742
decision_type=2 2 2 2 2 2 2 2 2 2 2 2 2 2 2 2 2 2 2 2 2 2 2 2 2 2 2 2 2 2
left_child=1 4 5 8 12 13 18 10 19 23 11 -4 -1 -2 -7 29 17 -8 26 -3 -14 -13 -21 -6 -15 -22 -5 -11 -29 -10
right_child=2 3 7 6 9 14 16 -9 15 27 -12 21 20 24 -16 -17 -18 -19 -20 22 25 -23 -24 -25 -26 -27 -28 28 -30 -31
